{"learner":{"attributes":{"scikit_learn":"{\"_estimator_type\": \"regressor\"}"},"feature_names":["Load_lag_1h","hour","is_day","dayofweek","is_holiday","Load_lag_24h"],"feature_types":["float","int","int","int","int","float"],"gradient_booster":{"model":{"gbtree_model_param":{"num_parallel_tree":"1","num_trees":"100"},"iteration_indptr":[0,1,2,3,4,5,6,7,8,9,10,11,12,13,14,15,16,17,18,19,20,21,22,23,24,25,26,27,28,29,30,31,32,33,34,35,36,37,38,39,40,41,42,43,44,45,46,47,48,49,50,51,52,53,54,55,56,57,58,59,60,61,62,63,64,65,66,67,68,69,70,71,72,73,74,75,76,77,78,79,80,81,82,83,84,85,86,87,88,89,90,91,92,93,94,95,96,97,98,99,100],"tree_info":[0,0,0,0,0,0,0,0,0,0,0,0,0,0,0,0,0,0,0,0,0,0,0,0,0,0,0,0,0,0,0,0,0,0,0,0,0,0,0,0,0,0,0,0,0,0,0,0,0,0,0,0,0,0,0,0,0,0,0,0,0,0,0,0,0,0,0,0,0,0,0,0,0,0,0,0,0,0,0,0,0,0,0,0,0,0,0,0,0,0,0,0,0,0,0,0,0,0,0,0],"trees":[{"base_weights":[9.743132E-4,-2.6439766E3,2.5204138E3,-4.0022764E3,-1.4650686E3,1.4680839E3,4.117933E3,-5.2397544E3,-3.445461E3,-2.0097644E3,-6.574056E2,1.7997316E3,-1.5021022E2,3.3958167E3,5.1025957E3,-6.021975E3,-4.846426E3,-3.7114915E3,-2.875597E3,-2.4173418E3,-1.4652871E3,3.558196E2,-1.2036798E3,1.1282548E3,2.3101711E3,-6.5267535E2,4.760793E2,3.6165542E3,2.2053616E3,4.718028E3,5.7722896E3,-6.4999346E3,-5.7753535E3,-5.1691636E3,-4.1485835E3,-4.1358228E3,-3.2894038E3,-2.2782778E3,-3.1957227E3,-2.050095E3,-3.1071763E3,-8.2230676E2,-1.9697577E3,8.877812E2,-6.1111633E2,-1.8481439E3,-7.07473E2,1.9559434E3,8.689222E2,2.0580344E3,2.6822659E3,-8.972097E2,-3.5277158E2,2.2742897E2,9.080863E2,3.3595164E3,4.0863179E3,1.8951183E3,2.720842E3,4.9221772E3,3.7686038E3,5.5651133E3,1.891242E3,-2.0043798E3,-1.7602372E3,-1.8201991E3,-1.5784126E3,-1.633797E3,-1.4636664E3,-1.0103215E3,-1.292364E3,-1.2006777E3,-1.4354982E3,-9.216015E2,-1.1882336E3,-1.1216106E3,-5.348525E2,-1.0459546E3,-8.665731E2,-7.716474E2,-4.9740787E2,-1.0059336E3,-8.6494946E2,-4.120293E2,-8.34207E0,-6.964687E2,-4.9672125E2,1.22007034E2,4.3872214E2,-3.66734E2,2.2401083E1,-6.538776E2,-4.867194E2,-1.7803616E2,-4.9003036E2,-2.1979599E1,6.047187E2,1.25456535E2,3.5252106E2,5.4824176E2,6.975622E2,1.0682065E3,7.6934906E2,-3.227633E2,-2.2359996E2,-1.5394681E2,-5.6809475E1,2.5797188E1,1.3721965E2,2.1905688E2,3.4820248E2,9.6285626E2,1.1053937E3,1.178611E3,1.3489801E3,4.858016E2,6.109075E2,7.6451685E2,9.8421014E2,1.4220988E3,1.5753531E3,1.2402699E3,9.7612085E2,1.7050178E3,1.4742667E3],"categories":[],"categories_nodes":[],"categories_segments":[],"categories_sizes":[],"default_left":[0,0,0,0,0,0,0,0,0,0,0,0,0,0,0,0,0,0,0,0,0,0,0,0,0,0,0,0,0,0,0,0,0,0,0,0,0,0,0,0,0,0,0,0,0,0,0,0,0,0,0,0,0,0,0,0,0,0,0,0,0,0,0,0,0,0,0,0,0,0,0,0,0,0,0,0,0,0,0,0,0,0,0,0,0,0,0,0,0,0,0,0,0,0,0,0,0,0,0,0,0,0,0,0,0,0,0,0,0,0,0,0,0,0,0,0,0,0,0,0,0,0,0,0,0],"id":0,"left_children":[1,3,5,7,9,11,13,15,17,19,21,23,25,27,29,31,33,35,37,39,41,43,45,47,49,51,53,55,57,59,61,63,65,67,69,71,73,75,77,79,81,83,85,87,89,91,93,95,97,99,101,103,105,107,109,111,113,115,117,119,121,123,-1,-1,-1,-1,-1,-1,-1,-1,-1,-1,-1,-1,-1,-1,-1,-1,-1,-1,-1,-1,-1,-1,-1,-1,-1,-1,-1,-1,-1,-1,-1,-1,-1,-1,-1,-1,-1,-1,-1,-1,-1,-1,-1,-1,-1,-1,-1,-1,-1,-1,-1,-1,-1,-1,-1,-1,-1,-1,-1,-1,-1,-1,-1],"loss_changes":[3.356147E11,3.9352746E10,4.333989E10,7.8508687E9,5.788166E9,8.3438633E9,7.263011E9,1.0605855E9,1.1837932E9,1.740501E9,2.935079E9,4.419535E9,8.326623E8,1.545044E9,1.0879304E9,1.0167501E8,5.1052134E8,9.478226E8,4.7305728E8,1.1318845E9,1.090516E9,9.56247E8,1.1003607E9,1.1947402E9,6.820782E8,1.0734189E8,1.2633272E8,5.88075E8,1.4309376E8,5.1562906E8,1.3846118E8,5.98528E6,8.633344E7,1.0288333E8,7.903027E7,2.1261517E8,3.813294E8,6.3005594E8,1.3578035E8,5.964841E8,7.622144E7,6.488823E8,2.045097E8,3.308658E8,2.767911E8,1.0854912E8,2.046953E8,1.6137882E8,5.854195E8,2.6512589E8,2.967716E8,2.112352E7,1.7226232E7,2.4323056E7,1.84744E7,1.4554726E8,9.602048E7,1.9372032E7,2.5045504E7,1.1062067E8,7.916749E7,5.9990016E7,0E0,0E0,0E0,0E0,0E0,0E0,0E0,0E0,0E0,0E0,0E0,0E0,0E0,0E0,0E0,0E0,0E0,0E0,0E0,0E0,0E0,0E0,0E0,0E0,0E0,0E0,0E0,0E0,0E0,0E0,0E0,0E0,0E0,0E0,0E0,0E0,0E0,0E0,0E0,0E0,0E0,0E0,0E0,0E0,0E0,0E0,0E0,0E0,0E0,0E0,0E0,0E0,0E0,0E0,0E0,0E0,0E0,0E0,0E0,0E0,0E0,0E0,0E0],"parents":[2147483647,0,0,1,1,2,2,3,3,4,4,5,5,6,6,7,7,8,8,9,9,10,10,11,11,12,12,13,13,14,14,15,15,16,16,17,17,18,18,19,19,20,20,21,21,22,22,23,23,24,24,25,25,26,26,27,27,28,28,29,29,30,30,31,31,32,32,33,33,34,34,35,35,36,36,37,37,38,38,39,39,40,40,41,41,42,42,43,43,44,44,45,45,46,46,47,47,48,48,49,49,50,50,51,51,52,52,53,53,54,54,55,55,56,56,57,57,58,58,59,59,60,60,61,61],"right_children":[2,4,6,8,10,12,14,16,18,20,22,24,26,28,30,32,34,36,38,40,42,44,46,48,50,52,54,56,58,60,62,64,66,68,70,72,74,76,78,80,82,84,86,88,90,92,94,96,98,100,102,104,106,108,110,112,114,116,118,120,122,124,-1,-1,-1,-1,-1,-1,-1,-1,-1,-1,-1,-1,-1,-1,-1,-1,-1,-1,-1,-1,-1,-1,-1,-1,-1,-1,-1,-1,-1,-1,-1,-1,-1,-1,-1,-1,-1,-1,-1,-1,-1,-1,-1,-1,-1,-1,-1,-1,-1,-1,-1,-1,-1,-1,-1,-1,-1,-1,-1,-1,-1,-1,-1],"split_conditions":[1.895916E4,1.61087E4,2.18452E4,1.441411E4,1.858455E4,2E1,2.329074E4,1.328938E4,1E0,1.729656E4,8E0,2.048084E4,2.020095E4,1.9E1,2.435613E4,1.264755E4,1E0,1.538683E4,6E0,2E1,1.9E1,5E0,1.754265E4,8E0,2.129106E4,1.959833E4,2.104723E4,2.26264E4,2.273248E4,1.9E1,2.491906E4,1.495485E4,1E0,1.392115E4,1.328491E4,2E1,2E1,4E0,1.550443E4,3E0,1.671954E4,4E0,1.805303E4,1.981025E4,1.741435E4,1.683806E4,2E1,4E0,1.973054E4,2.107645E4,7E0,1.925614E4,1.853744E4,1.925568E4,2.142183E4,2.244236E4,2.322566E4,2.218905E4,2.19926E4,2.393596E4,2E1,1.9E1,1.891242E3,-2.0043798E3,-1.7602372E3,-1.8201991E3,-1.5784126E3,-1.633797E3,-1.4636664E3,-1.0103215E3,-1.292364E3,-1.2006777E3,-1.4354982E3,-9.216015E2,-1.1882336E3,-1.1216106E3,-5.348525E2,-1.0459546E3,-8.665731E2,-7.716474E2,-4.9740787E2,-1.0059336E3,-8.6494946E2,-4.120293E2,-8.34207E0,-6.964687E2,-4.9672125E2,1.22007034E2,4.3872214E2,-3.66734E2,2.2401083E1,-6.538776E2,-4.867194E2,-1.7803616E2,-4.9003036E2,-2.1979599E1,6.047187E2,1.25456535E2,3.5252106E2,5.4824176E2,6.975622E2,1.0682065E3,7.6934906E2,-3.227633E2,-2.2359996E2,-1.5394681E2,-5.6809475E1,2.5797188E1,1.3721965E2,2.1905688E2,3.4820248E2,9.6285626E2,1.1053937E3,1.178611E3,1.3489801E3,4.858016E2,6.109075E2,7.6451685E2,9.8421014E2,1.4220988E3,1.5753531E3,1.2402699E3,9.7612085E2,1.7050178E3,1.4742667E3],"split_indices":[0,0,0,0,5,1,0,0,2,0,1,0,0,1,0,0,2,0,1,1,1,3,0,1,5,0,0,0,0,1,5,5,2,0,5,1,1,1,0,1,0,1,0,5,0,0,1,1,0,0,1,0,5,5,0,5,5,0,5,5,1,1,0,0,0,0,0,0,0,0,0,0,0,0,0,0,0,0,0,0,0,0,0,0,0,0,0,0,0,0,0,0,0,0,0,0,0,0,0,0,0,0,0,0,0,0,0,0,0,0,0,0,0,0,0,0,0,0,0,0,0,0,0,0,0],"split_type":[0,0,0,0,0,0,0,0,0,0,0,0,0,0,0,0,0,0,0,0,0,0,0,0,0,0,0,0,0,0,0,0,0,0,0,0,0,0,0,0,0,0,0,0,0,0,0,0,0,0,0,0,0,0,0,0,0,0,0,0,0,0,0,0,0,0,0,0,0,0,0,0,0,0,0,0,0,0,0,0,0,0,0,0,0,0,0,0,0,0,0,0,0,0,0,0,0,0,0,0,0,0,0,0,0,0,0,0,0,0,0,0,0,0,0,0,0,0,0,0,0,0,0,0,0],"sum_hessian":[5.0361E4,2.4578E4,2.5783E4,1.1419E4,1.3159E4,1.5545E4,1.0238E4,3.541E3,7.878E3,7.858E3,5.301E3,1.2901E4,2.644E3,5.909E3,4.329E3,1.18E3,2.361E3,5.367E3,2.511E3,4.492E3,3.366E3,1.857E3,3.444E3,5.573E3,7.328E3,1.467E3,1.177E3,4.983E3,9.26E2,2.755E3,1.574E3,3.93E2,7.87E2,1.61E3,7.51E2,2.672E3,2.695E3,8.79E2,1.632E3,2.934E3,1.558E3,1.481E3,1.885E3,1.198E3,6.59E2,1.497E3,1.947E3,1.328E3,4.245E3,4.372E3,2.956E3,8.07E2,6.6E2,7.48E2,4.29E2,3.226E3,1.757E3,5.81E2,3.45E2,2.264E3,4.91E2,1.141E3,4.33E2,2.98E2,9.5E1,4.95E2,2.92E2,8.15E2,7.95E2,1.31E2,6.2E2,2.222E3,4.5E2,2.04E3,6.55E2,2.21E2,6.58E2,8.33E2,7.99E2,1.256E3,1.678E3,7.36E2,8.22E2,8.74E2,6.07E2,8.86E2,9.99E2,6.53E2,5.45E2,3.48E2,3.11E2,6.03E2,8.94E2,1.735E3,2.12E2,3.8E1,1.29E3,1.718E3,2.527E3,2.351E3,2.021E3,3.46E2,2.61E3,3.68E2,4.39E2,3.32E2,3.28E2,4.64E2,2.84E2,2.54E2,1.75E2,2.215E3,1.011E3,1.277E3,4.8E2,2.01E2,3.8E2,2.68E2,7.7E1,1.468E3,7.96E2,2.83E2,2.08E2,9.59E2,1.82E2],"tree_param":{"num_deleted":"0","num_feature":"6","num_nodes":"125","size_leaf_vector":"1"}},{"base_weights":[-1.0634351E-1,-1.9287678E3,1.6998018E3,-2.9621072E3,-1.2139303E3,8.3645496E2,2.7299487E3,-3.7999866E3,-2.5920964E3,-1.712941E3,-7.541317E2,1.1436766E3,-9.5135445E1,2.211111E3,3.4979993E3,-4.394818E3,-3.5818303E3,-2.797006E3,-2.1675798E3,-1.5247528E3,-2.3410376E3,-4.04522E2,-1.5051775E3,6.4893427E2,1.4555839E3,-5.330441E2,3.1331796E2,2.3611885E3,1.323333E3,3.1093088E3,3.9157556E3,-1.4419155E3,-4.249496E3,-3.7887249E3,-3.1231543E3,-3.121629E3,-2.5407744E3,-1.9202487E3,-2.594749E3,-1.921506E3,-1.2455378E3,-2.553477E3,-2.1664932E3,-1.0610286E3,-2.083412E2,-1.7494479E3,-1.2832458E3,1.294106E3,4.6055316E2,2.0674368E3,1.3270903E3,-7.39545E2,-3.1943204E2,6.8417664E2,1.7261444E2,2.1259727E3,2.6561208E3,1.0816268E3,1.6699604E3,3.2662573E3,2.4229258E3,3.748774E3,4.4067524E3,-1.3406711E3,-1.1790581E3,-1.2085189E3,-1.0757609E3,-8.8109235E2,-1.0802523E3,-9.0615216E2,-1.0733132E3,-7.2890857E2,-9.042873E2,-8.203039E2,-5.1926996E2,-9.005066E2,-7.315687E2,-6.380509E2,-5.1229944E2,-1.6170984E2,-5.0744427E2,-7.243696E2,-8.152419E2,-6.860755E2,-5.984245E2,-3.6843646E2,-2.2246132E2,1.2836536E2,-2.168125E2,-3.4483292E2,-5.4357715E2,-4.1926385E2,-3.4470105E2,-6.1146313E1,4.3097726E2,5.2652615E1,1.9277081E2,8.5300934E2,5.7706323E2,3.2819742E2,4.6086798E2,-2.5733087E2,-1.7871693E2,2.986695E1,-1.2734297E2,1.101954E2,2.3583821E2,-1.5671948E1,1.2367943E2,8.1576373E2,6.1700555E2,7.6711084E2,9.014988E2,2.7655075E2,3.860868E2,4.8071866E2,6.398667E2,9.431281E2,1.0634336E3,8.047326E2,6.3836926E2,1.1533813E3,9.5212384E2,1.2869579E3,1.4330654E3],"categories":[],"categories_nodes":[],"categories_segments":[],"categories_sizes":[],"default_left":[0,0,0,0,0,0,0,0,0,0,0,0,0,0,0,0,0,0,0,0,0,0,0,0,0,0,0,0,0,0,0,0,0,0,0,0,0,0,0,0,0,0,0,0,0,0,0,0,0,0,0,0,0,0,0,0,0,0,0,0,0,0,0,0,0,0,0,0,0,0,0,0,0,0,0,0,0,0,0,0,0,0,0,0,0,0,0,0,0,0,0,0,0,0,0,0,0,0,0,0,0,0,0,0,0,0,0,0,0,0,0,0,0,0,0,0,0,0,0,0,0,0,0,0,0],"id":1,"left_children":[1,3,5,7,9,11,13,15,17,19,21,23,25,27,29,31,33,35,37,39,41,43,45,47,49,51,53,55,57,59,61,-1,63,65,67,69,71,73,75,77,79,81,83,85,87,89,91,93,95,97,99,101,103,105,107,109,111,113,115,117,119,121,123,-1,-1,-1,-1,-1,-1,-1,-1,-1,-1,-1,-1,-1,-1,-1,-1,-1,-1,-1,-1,-1,-1,-1,-1,-1,-1,-1,-1,-1,-1,-1,-1,-1,-1,-1,-1,-1,-1,-1,-1,-1,-1,-1,-1,-1,-1,-1,-1,-1,-1,-1,-1,-1,-1,-1,-1,-1,-1,-1,-1,-1,-1],"loss_changes":[1.6511746E11,1.742458E10,2.380537E10,2.980954E9,3.1990026E9,4.1686825E9,4.8558735E9,3.6745626E8,5.763195E8,7.869522E8,1.905933E9,1.6892518E9,6.4640736E8,9.677619E8,7.865672E8,2.6703872E7,1.9371622E8,3.6737024E8,2.257623E8,5.6801075E8,5.157171E7,6.3808186E8,1.2276634E8,5.143611E8,5.2534272E8,7.669354E7,9.746058E7,4.266844E8,8.666752E7,2.671104E8,1.7754522E8,0E0,2.3839744E7,5.789901E7,4.981197E7,8.078746E7,1.2559155E8,2.090711E8,4.339968E7,8.96727E7,9.5214746E8,9.134592E6,1.3059584E7,5.9947904E7,1.2494362E9,3.896448E7,1.6991104E7,2.045472E8,1.7011437E8,1.2449126E8,2.690734E8,1.4553888E7,3.784895E7,1.6315488E7,7.314538E7,1.3712077E8,8.77609E7,1.9319808E7,1.0094208E7,5.9652096E7,3.0966528E7,8.54999E7,5.250048E6,0E0,0E0,0E0,0E0,0E0,0E0,0E0,0E0,0E0,0E0,0E0,0E0,0E0,0E0,0E0,0E0,0E0,0E0,0E0,0E0,0E0,0E0,0E0,0E0,0E0,0E0,0E0,0E0,0E0,0E0,0E0,0E0,0E0,0E0,0E0,0E0,0E0,0E0,0E0,0E0,0E0,0E0,0E0,0E0,0E0,0E0,0E0,0E0,0E0,0E0,0E0,0E0,0E0,0E0,0E0,0E0,0E0,0E0,0E0,0E0,0E0,0E0],"parents":[2147483647,0,0,1,1,2,2,3,3,4,4,5,5,6,6,7,7,8,8,9,9,10,10,11,11,12,12,13,13,14,14,15,15,16,16,17,17,18,18,19,19,20,20,21,21,22,22,23,23,24,24,25,25,26,26,27,27,28,28,29,29,30,30,32,32,33,33,34,34,35,35,36,36,37,37,38,38,39,39,40,40,41,41,42,42,43,43,44,44,45,45,46,46,47,47,48,48,49,49,50,50,51,51,52,52,53,53,54,54,55,55,56,56,57,57,58,58,59,59,60,60,61,61,62,62],"right_children":[2,4,6,8,10,12,14,16,18,20,22,24,26,28,30,32,34,36,38,40,42,44,46,48,50,52,54,56,58,60,62,-1,64,66,68,70,72,74,76,78,80,82,84,86,88,90,92,94,96,98,100,102,104,106,108,110,112,114,116,118,120,122,124,-1,-1,-1,-1,-1,-1,-1,-1,-1,-1,-1,-1,-1,-1,-1,-1,-1,-1,-1,-1,-1,-1,-1,-1,-1,-1,-1,-1,-1,-1,-1,-1,-1,-1,-1,-1,-1,-1,-1,-1,-1,-1,-1,-1,-1,-1,-1,-1,-1,-1,-1,-1,-1,-1,-1,-1,-1,-1,-1,-1,-1,-1],"split_conditions":[1.869841E4,1.579915E4,2.149211E4,1.419638E4,1.702643E4,1.9E1,2.309861E4,1.302409E4,1E0,2E1,1.9E1,2.013148E4,1.990253E4,1.9E1,2.401164E4,1.229948E4,1E0,1.504594E4,9E0,4E0,1.642464E4,4E0,1.780403E4,7E0,8E0,1.933885E4,2E1,2.222981E4,2.244268E4,1.9E1,2.491906E4,-1.4419155E3,4E0,1.363871E4,1E0,2E1,2.1E1,4E0,1.509138E4,2E0,7E0,5E0,2.3E1,1.780403E4,8E0,2E1,1.829349E4,4E0,1.937966E4,1E0,2.082825E4,1.790715E4,2E1,2.020095E4,2.063784E4,8E0,2.302893E4,2.054603E4,2.184426E4,2.379264E4,2E1,1.9E1,2.538595E4,-1.3406711E3,-1.1790581E3,-1.2085189E3,-1.0757609E3,-8.8109235E2,-1.0802523E3,-9.0615216E2,-1.0733132E3,-7.2890857E2,-9.042873E2,-8.203039E2,-5.1926996E2,-9.005066E2,-7.315687E2,-6.380509E2,-5.1229944E2,-1.6170984E2,-5.0744427E2,-7.243696E2,-8.152419E2,-6.860755E2,-5.984245E2,-3.6843646E2,-2.2246132E2,1.2836536E2,-2.168125E2,-3.4483292E2,-5.4357715E2,-4.1926385E2,-3.4470105E2,-6.1146313E1,4.3097726E2,5.2652615E1,1.9277081E2,8.5300934E2,5.7706323E2,3.2819742E2,4.6086798E2,-2.5733087E2,-1.7871693E2,2.986695E1,-1.2734297E2,1.101954E2,2.3583821E2,-1.5671948E1,1.2367943E2,8.1576373E2,6.1700555E2,7.6711084E2,9.014988E2,2.7655075E2,3.860868E2,4.8071866E2,6.398667E2,9.431281E2,1.0634336E3,8.047326E2,6.3836926E2,1.1533813E3,9.5212384E2,1.2869579E3,1.4330654E3],"split_indices":[0,0,0,0,0,1,0,0,2,1,1,0,0,1,0,0,2,0,1,1,0,1,0,1,1,0,1,0,0,1,0,0,1,0,4,1,1,1,0,1,1,3,1,0,1,1,0,1,0,2,0,5,1,0,0,1,5,5,5,5,1,1,5,0,0,0,0,0,0,0,0,0,0,0,0,0,0,0,0,0,0,0,0,0,0,0,0,0,0,0,0,0,0,0,0,0,0,0,0,0,0,0,0,0,0,0,0,0,0,0,0,0,0,0,0,0,0,0,0,0,0,0,0,0,0],"split_type":[0,0,0,0,0,0,0,0,0,0,0,0,0,0,0,0,0,0,0,0,0,0,0,0,0,0,0,0,0,0,0,0,0,0,0,0,0,0,0,0,0,0,0,0,0,0,0,0,0,0,0,0,0,0,0,0,0,0,0,0,0,0,0,0,0,0,0,0,0,0,0,0,0,0,0,0,0,0,0,0,0,0,0,0,0,0,0,0,0,0,0,0,0,0,0,0,0,0,0,0,0,0,0,0,0,0,0,0,0,0,0,0,0,0,0,0,0,0,0,0,0,0,0,0,0],"sum_hessian":[5.0361E4,2.3593E4,2.6768E4,9.646E3,1.3947E4,1.4564E4,1.2204E4,2.952E3,6.694E3,6.687E3,7.26E3,1.0952E4,3.612E3,7.286E3,4.918E3,7.87E2,2.165E3,4.511E3,2.183E3,5.148E3,1.539E3,4.955E3,2.305E3,4.236E3,6.716E3,1.743E3,1.869E3,6.231E3,1.055E3,2.552E3,2.366E3,1.97E2,5.9E2,1.487E3,6.78E2,1.985E3,2.526E3,1.386E3,7.97E2,2.124E3,3.024E3,6.88E2,8.51E2,1.139E3,3.816E3,1.094E3,1.211E3,9.56E2,3.28E3,1.163E3,5.553E3,8.85E2,8.58E2,5.13E2,1.356E3,3.471E3,2.76E3,6.24E2,4.31E2,2.074E3,4.78E2,1.772E3,5.94E2,3.42E2,2.48E2,6.73E2,8.14E2,4.93E2,1.85E2,1.631E3,3.54E2,2.051E3,4.75E2,2.59E2,1.127E3,2.16E2,5.81E2,1.079E3,1.045E3,1.171E3,1.853E3,3.81E2,3.07E2,4.93E2,3.58E2,7.46E2,3.93E2,1.706E3,2.11E3,1.05E2,9.89E2,6.49E2,5.62E2,8.3E1,8.73E2,1.279E3,2.001E3,1.79E2,9.84E2,2.629E3,2.924E3,4.83E2,4.02E2,1.72E2,6.86E2,1.26E2,3.87E2,7E2,6.56E2,3.59E2,3.112E3,2.156E3,6.04E2,3.54E2,2.7E2,3.8E2,5.1E1,1.449E3,6.25E2,2.5E2,2.28E2,1.514E3,2.58E2,4.61E2,1.33E2],"tree_param":{"num_deleted":"0","num_feature":"6","num_nodes":"125","size_leaf_vector":"1"}},{"base_weights":[-1.906993E-1,-1.3837163E3,1.1653417E3,-2.1194697E3,-9.0685706E2,5.160904E2,1.861664E3,-2.5374604E3,-1.7681241E3,-1.321466E3,-6.3679376E2,7.4154376E2,-1.260739E2,1.5637238E3,2.5614297E3,-2.9057048E3,-2.3093577E3,-2.0395109E3,-1.5931879E3,-1.1378843E3,-1.5943344E3,-4.122041E2,-1.1968922E3,4.1475244E2,9.567162E2,-4.3133768E2,1.8159149E2,1.3565797E3,1.8780465E3,2.4013716E3,2.9653855E3,-3.1553105E3,-2.7524844E3,-2.4615193E3,-1.9840331E3,-6.672809E2,-1.958047E3,-1.3093282E3,-1.9804988E3,-1.4498469E3,-6.566964E2,-1.4399238E3,-1.7663138E3,-5.629711E2,6.808859E0,-1.3988918E3,-1.0019321E3,7.634975E2,2.1192235E2,1.6264252E3,8.918821E2,-6.1996796E2,-2.9637662E2,2.5796497E1,3.725652E2,1.4873911E3,9.012167E2,1.953116E3,1.2447407E3,2.4585376E3,1.6703043E3,8.5570667E2,9.6647266E2,-1.0100767E3,-8.892774E2,-8.7234564E2,-7.459305E2,-7.152894E2,-8.432759E2,-3.877294E2,-6.2381604E2,-6.611366E2,-5.585488E2,-3.1652606E2,-4.813556E2,-5.2754E2,-6.68618E2,-5.1434436E2,-4.059067E2,-7.335691E1,-3.2035785E2,-5.1039487E2,-3.625294E2,-5.8206464E2,-4.9161093E2,1.3153383E2,-1.8367415E2,7.376446E1,-9.051114E1,-4.390604E2,-3.722276E2,-3.0964078E2,-2.3770831E2,-3.783784E1,2.4996767E2,2.7665138E0,1.18616516E2,4.4520676E2,5.799326E2,2.2002428E2,3.0990836E2,-2.1712712E2,-1.5093187E2,-5.1759334E0,-1.0833406E2,1.3798064E2,-6.0916657E0,1.404006E2,8.4495544E1,4.146908E2,5.7551886E2,1.7769395E2,3.337423E2,5.394732E2,6.6934296E2,3.3968335E2,4.4530588E2,7.14792E2,8.5018353E2,4.3502658E2,5.203242E2],"categories":[],"categories_nodes":[],"categories_segments":[],"categories_sizes":[],"default_left":[0,0,0,0,0,0,0,0,0,0,0,0,0,0,0,0,0,0,0,0,0,0,0,0,0,0,0,0,0,0,0,0,0,0,0,0,0,0,0,0,0,0,0,0,0,0,0,0,0,0,0,0,0,0,0,0,0,0,0,0,0,0,0,0,0,0,0,0,0,0,0,0,0,0,0,0,0,0,0,0,0,0,0,0,0,0,0,0,0,0,0,0,0,0,0,0,0,0,0,0,0,0,0,0,0,0,0,0,0,0,0,0,0,0,0,0,0,0,0,0,0],"id":2,"left_children":[1,3,5,7,9,11,13,15,17,19,21,23,25,27,29,31,33,35,37,39,41,43,45,47,49,51,53,55,57,59,61,63,65,67,69,-1,71,73,75,77,79,81,83,85,87,89,91,93,95,97,99,101,103,105,107,109,111,113,115,117,119,-1,-1,-1,-1,-1,-1,-1,-1,-1,-1,-1,-1,-1,-1,-1,-1,-1,-1,-1,-1,-1,-1,-1,-1,-1,-1,-1,-1,-1,-1,-1,-1,-1,-1,-1,-1,-1,-1,-1,-1,-1,-1,-1,-1,-1,-1,-1,-1,-1,-1,-1,-1,-1,-1,-1,-1,-1,-1,-1,-1],"loss_changes":[8.1212555E10,8.0774676E9,1.2356866E10,1.3253263E9,1.5638364E9,2.0482693E9,2.7457454E9,3.4045133E8,2.3047066E8,2.7425178E8,1.06421274E9,7.3588685E8,3.4541888E8,5.9991654E8,2.4743117E8,5.162701E7,1.2169216E8,2.4632832E7,3.2701338E8,4.9411917E8,5.625037E7,3.8176045E8,9.398118E7,2.940292E8,2.7265997E8,4.6811264E7,5.4497424E7,3.3110016E8,1.721897E8,1.1395686E8,2.304E7,1.3994496E7,3.347712E7,4.0192E7,5.138867E7,0E0,2.76992E7,1.2836813E8,6.5856E7,4.8926464E7,2.1988115E8,6.886246E7,1.9966464E7,2.1956134E8,1.1808529E8,1.0317824E7,7.005824E6,9.495155E7,9.783978E7,2.141312E7,1.2803174E8,8.96304E6,1.94728E7,2.022418E7,7.008928E6,1.9365171E8,8.078336E7,1.3730714E8,8.882688E6,6.784102E7,4.21504E5,0E0,0E0,0E0,0E0,0E0,0E0,0E0,0E0,0E0,0E0,0E0,0E0,0E0,0E0,0E0,0E0,0E0,0E0,0E0,0E0,0E0,0E0,0E0,0E0,0E0,0E0,0E0,0E0,0E0,0E0,0E0,0E0,0E0,0E0,0E0,0E0,0E0,0E0,0E0,0E0,0E0,0E0,0E0,0E0,0E0,0E0,0E0,0E0,0E0,0E0,0E0,0E0,0E0,0E0,0E0,0E0,0E0,0E0,0E0,0E0],"parents":[2147483647,0,0,1,1,2,2,3,3,4,4,5,5,6,6,7,7,8,8,9,9,10,10,11,11,12,12,13,13,14,14,15,15,16,16,17,17,18,18,19,19,20,20,21,21,22,22,23,23,24,24,25,25,26,26,27,27,28,28,29,29,30,30,31,31,32,32,33,33,34,34,36,36,37,37,38,38,39,39,40,40,41,41,42,42,43,43,44,44,45,45,46,46,47,47,48,48,49,49,50,50,51,51,52,52,53,53,54,54,55,55,56,56,57,57,58,58,59,59,60,60],"right_children":[2,4,6,8,10,12,14,16,18,20,22,24,26,28,30,32,34,36,38,40,42,44,46,48,50,52,54,56,58,60,62,64,66,68,70,-1,72,74,76,78,80,82,84,86,88,90,92,94,96,98,100,102,104,106,108,110,112,114,116,118,120,-1,-1,-1,-1,-1,-1,-1,-1,-1,-1,-1,-1,-1,-1,-1,-1,-1,-1,-1,-1,-1,-1,-1,-1,-1,-1,-1,-1,-1,-1,-1,-1,-1,-1,-1,-1,-1,-1,-1,-1,-1,-1,-1,-1,-1,-1,-1,-1,-1,-1,-1,-1,-1,-1,-1,-1,-1,-1,-1,-1],"split_conditions":[1.854278E4,1.569773E4,2.131988E4,1.46029E4,1.668163E4,1.9E1,2.34312E4,1.353139E4,3E0,1E1,2E1,2.001508E4,1.981931E4,2.218685E4,2.444083E4,1.286055E4,1E0,1E0,9E0,4E0,2.1E1,1.795795E4,1.754265E4,9E0,7E0,1.910809E4,1.934158E4,1.9E1,5E0,2E1,2.510764E4,1E0,4E0,1.9E1,1.328491E4,-6.672809E2,1.490733E4,5E0,2E1,1E0,5E0,1.5E1,2.3E1,1E0,1E1,2.3E1,6E0,5E0,1.5E1,2.206796E4,2.070059E4,1.77207E4,2E1,2E1,4E0,2.240253E4,2.211029E4,2.302893E4,2.465524E4,2.454054E4,2.36381E4,8.5570667E2,9.6647266E2,-1.0100767E3,-8.892774E2,-8.7234564E2,-7.459305E2,-7.152894E2,-8.432759E2,-3.877294E2,-6.2381604E2,-6.611366E2,-5.585488E2,-3.1652606E2,-4.813556E2,-5.2754E2,-6.68618E2,-5.1434436E2,-4.059067E2,-7.335691E1,-3.2035785E2,-5.1039487E2,-3.625294E2,-5.8206464E2,-4.9161093E2,1.3153383E2,-1.8367415E2,7.376446E1,-9.051114E1,-4.390604E2,-3.722276E2,-3.0964078E2,-2.3770831E2,-3.783784E1,2.4996767E2,2.7665138E0,1.18616516E2,4.4520676E2,5.799326E2,2.2002428E2,3.0990836E2,-2.1712712E2,-1.5093187E2,-5.1759334E0,-1.0833406E2,1.3798064E2,-6.0916657E0,1.404006E2,8.4495544E1,4.146908E2,5.7551886E2,1.7769395E2,3.337423E2,5.394732E2,6.6934296E2,3.3968335E2,4.4530588E2,7.14792E2,8.5018353E2,4.3502658E2,5.203242E2],"split_indices":[0,0,0,0,0,1,0,0,1,1,1,0,0,5,5,0,2,1,1,1,1,0,0,1,1,0,5,1,3,1,5,2,1,1,5,0,0,3,1,1,3,1,1,3,1,1,3,1,1,5,0,5,1,1,3,0,0,5,5,0,0,0,0,0,0,0,0,0,0,0,0,0,0,0,0,0,0,0,0,0,0,0,0,0,0,0,0,0,0,0,0,0,0,0,0,0,0,0,0,0,0,0,0,0,0,0,0,0,0,0,0,0,0,0,0,0,0,0,0,0,0],"split_type":[0,0,0,0,0,0,0,0,0,0,0,0,0,0,0,0,0,0,0,0,0,0,0,0,0,0,0,0,0,0,0,0,0,0,0,0,0,0,0,0,0,0,0,0,0,0,0,0,0,0,0,0,0,0,0,0,0,0,0,0,0,0,0,0,0,0,0,0,0,0,0,0,0,0,0,0,0,0,0,0,0,0,0,0,0,0,0,0,0,0,0,0,0,0,0,0,0,0,0,0,0,0,0,0,0,0,0,0,0,0,0,0,0,0,0,0,0,0,0,0,0],"sum_hessian":[5.0361E4,2.3027E4,2.7334E4,9.054E3,1.3973E4,1.4146E4,1.3188E4,4.132E3,4.922E3,5.51E3,8.463E3,1.047E4,3.676E3,9.252E3,3.936E3,1.576E3,2.556E3,1.925E3,2.997E3,3.297E3,2.213E3,6.042E3,2.421E3,4.158E3,6.312E3,1.845E3,1.831E3,5.58E3,3.672E3,2.824E3,1.112E3,5.92E2,9.84E2,1.737E3,8.19E2,5.81E2,1.344E3,1.732E3,1.265E3,1.999E3,1.298E3,1.171E3,1.042E3,4.443E3,1.599E3,1.186E3,1.235E3,1.528E3,2.63E3,5.55E2,5.757E3,7.68E2,1.077E3,1.009E3,8.22E2,4.333E3,1.247E3,3.281E3,3.91E2,2.617E3,2.07E2,7.8E2,3.32E2,2.73E2,3.19E2,6.15E2,3.69E2,1.429E3,3.08E2,1.01E2,7.18E2,3.72E2,9.72E2,9.33E2,7.99E2,6.72E2,5.93E2,5.31E2,1.468E3,6.49E2,6.49E2,5.47E2,6.24E2,4.35E2,6.07E2,2.08E2,4.235E3,9.01E2,6.98E2,8.36E2,3.5E2,1.076E3,1.59E2,1.11E2,1.417E3,1.25E3,1.38E3,3.83E2,1.72E2,2.715E3,3.042E3,4.04E2,3.64E2,2.03E2,8.74E2,9.6E1,9.13E2,3.99E2,4.23E2,3.487E3,8.46E2,5.08E2,7.39E2,2.112E3,1.169E3,2.7E2,1.21E2,2.183E3,4.34E2,5.2E1,1.55E2],"tree_param":{"num_deleted":"0","num_feature":"6","num_nodes":"121","size_leaf_vector":"1"}},{"base_weights":[-2.3386876E-1,-1.00981573E3,7.857055E2,-1.6051381E3,-7.390552E2,3.134455E2,1.2839205E3,-1.975983E3,-1.4349489E3,-1.0024859E3,-5.0771506E2,4.836273E2,-1.4305203E2,1.0141458E3,1.6887659E3,-2.4430376E3,-1.9279886E3,-1.5821804E3,-1.2692391E3,-8.9698663E2,-1.1819353E3,-2.2295554E2,-7.534429E2,2.6117853E2,6.3923883E2,-4.1044388E2,6.346409E1,1.0891476E3,5.588541E2,1.468108E3,1.9086508E3,-7.788683E2,-6.335985E2,-2.0453524E3,-1.7473766E3,-1.6887106E3,-1.4354899E3,-9.4671277E2,-1.6561638E3,-1.1283226E3,-4.8190082E2,-1.2350245E3,-9.286297E2,-5.789746E2,2.3129927E2,-8.518252E2,-4.6183072E2,5.852801E2,1.3193214E2,8.848094E2,5.113862E2,-5.293589E2,-3.1108005E2,-5.9935753E1,2.2079709E2,1.4793214E3,1.0431132E3,3.813096E2,6.936418E2,1.6020529E3,1.1518875E3,1.8081172E3,2.1565505E3,-5.662869E2,-6.506589E2,-4.7915253E2,-6.9239264E2,-4.4707272E2,-5.2888336E2,-4.7619675E2,-4.1596426E2,-1.3053368E2,-3.8128308E2,-5.501893E2,-4.41779E2,-3.7473853E2,-2.967432E2,-4.0612556E1,-2.3624985E2,-3.430329E2,-3.9301956E2,-3.4124945E2,-1.8342458E2,-2.6352588E2,-1.0826302E2,1.7144218E2,-7.1957214E1,-2.7897897E2,-2.0885939E2,2.9438032E1,-1.7497916E2,-7.225169E1,2.2632588E2,2.4831003E1,1.5544519E2,4.1512637E2,2.5134346E2,1.22334145E2,2.4888759E2,-1.8983878E2,-1.2900255E2,-5.037881E1,-1.1165255E2,4.9278015E1,-4.0885654E1,4.2630283E1,1.3391107E2,4.0718912E2,5.373268E2,2.764585E2,3.5682123E2,9.118009E1,1.8118716E2,1.9445403E2,3.177201E2,6.205249E2,4.7001114E2,3.2618396E2,4.0714478E2,5.7780707E2,4.7744327E2,6.2105255E2,7.208011E2],"categories":[],"categories_nodes":[],"categories_segments":[],"categories_sizes":[],"default_left":[0,0,0,0,0,0,0,0,0,0,0,0,0,0,0,0,0,0,0,0,0,0,0,0,0,0,0,0,0,0,0,0,0,0,0,0,0,0,0,0,0,0,0,0,0,0,0,0,0,0,0,0,0,0,0,0,0,0,0,0,0,0,0,0,0,0,0,0,0,0,0,0,0,0,0,0,0,0,0,0,0,0,0,0,0,0,0,0,0,0,0,0,0,0,0,0,0,0,0,0,0,0,0,0,0,0,0,0,0,0,0,0,0,0,0,0,0,0,0,0,0,0,0],"id":3,"left_children":[1,3,5,7,9,11,13,15,17,19,21,23,25,27,29,31,33,35,37,39,41,43,45,47,49,51,53,55,57,59,61,-1,-1,63,65,67,69,71,73,75,77,79,81,83,85,87,89,91,93,95,97,99,101,103,105,107,109,111,113,115,117,119,121,-1,-1,-1,-1,-1,-1,-1,-1,-1,-1,-1,-1,-1,-1,-1,-1,-1,-1,-1,-1,-1,-1,-1,-1,-1,-1,-1,-1,-1,-1,-1,-1,-1,-1,-1,-1,-1,-1,-1,-1,-1,-1,-1,-1,-1,-1,-1,-1,-1,-1,-1,-1,-1,-1,-1,-1,-1,-1,-1,-1],"loss_changes":[3.996154E10,3.5522417E9,6.6624553E9,4.320809E8,9.230684E8,1.1295685E9,1.5032975E9,4.3821056E7,1.1331994E8,1.3307187E8,5.6458675E8,3.664471E8,2.180927E8,2.818606E8,2.64491E8,4.557952E6,3.814195E7,3.662797E7,2.7659674E8,4.283008E8,3.40864E7,6.0497926E8,1.2388941E8,1.8260048E8,1.9518106E8,2.01704E7,4.328897E7,1.2600064E8,2.7782432E7,1.148032E8,6.478643E7,0E0,0E0,1.9030528E7,6.2160384E7,1.8617856E7,5.661184E6,2.0148467E8,3.0329088E7,4.696909E7,1.6932982E8,1.3366784E7,2.9649824E7,1.366345E8,2.6363008E8,3.871104E7,7.451438E7,1.7386528E8,5.917859E7,4.8834816E7,1.3484448E8,7.764144E6,8.158568E6,2.1419004E7,1.7333276E7,2.5987328E7,1.1193907E8,8.56804E6,1.0361088E7,2.8609536E7,9.438592E6,4.717824E7,1.1820032E7,0E0,0E0,0E0,0E0,0E0,0E0,0E0,0E0,0E0,0E0,0E0,0E0,0E0,0E0,0E0,0E0,0E0,0E0,0E0,0E0,0E0,0E0,0E0,0E0,0E0,0E0,0E0,0E0,0E0,0E0,0E0,0E0,0E0,0E0,0E0,0E0,0E0,0E0,0E0,0E0,0E0,0E0,0E0,0E0,0E0,0E0,0E0,0E0,0E0,0E0,0E0,0E0,0E0,0E0,0E0,0E0,0E0,0E0,0E0,0E0],"parents":[2147483647,0,0,1,1,2,2,3,3,4,4,5,5,6,6,7,7,8,8,9,9,10,10,11,11,12,12,13,13,14,14,15,15,16,16,17,17,18,18,19,19,20,20,21,21,22,22,23,23,24,24,25,25,26,26,27,27,28,28,29,29,30,30,33,33,34,34,35,35,36,36,37,37,38,38,39,39,40,40,41,41,42,42,43,43,44,44,45,45,46,46,47,47,48,48,49,49,50,50,51,51,52,52,53,53,54,54,55,55,56,56,57,57,58,58,59,59,60,60,61,61,62,62],"right_children":[2,4,6,8,10,12,14,16,18,20,22,24,26,28,30,32,34,36,38,40,42,44,46,48,50,52,54,56,58,60,62,-1,-1,64,66,68,70,72,74,76,78,80,82,84,86,88,90,92,94,96,98,100,102,104,106,108,110,112,114,116,118,120,122,-1,-1,-1,-1,-1,-1,-1,-1,-1,-1,-1,-1,-1,-1,-1,-1,-1,-1,-1,-1,-1,-1,-1,-1,-1,-1,-1,-1,-1,-1,-1,-1,-1,-1,-1,-1,-1,-1,-1,-1,-1,-1,-1,-1,-1,-1,-1,-1,-1,-1,-1,-1,-1,-1,-1,-1,-1,-1,-1,-1],"split_conditions":[1.829349E4,1.52619E4,2.123051E4,1.383889E4,1.65682E4,1.9E1,2.290093E4,1.229948E4,4E0,1E1,1E1,1.990253E4,1.951256E4,1.9E1,2.387485E4,1.419391E4,4E0,1.480915E4,8E0,4E0,1.828613E4,5E0,1.976769E4,7E0,1E1,1.886489E4,2.039179E4,8E0,2.191899E4,1.8E1,2.476914E4,-7.788683E2,-6.335985E2,3E0,9E0,1E0,1E0,5E0,1.475975E4,1.590201E4,5E0,2.1E1,1.5E1,2E0,5E0,1.759008E4,1E0,5E0,2.244236E4,1E0,1.7E1,1.737476E4,2.1E1,2E1,1.997833E4,2.284486E4,2.203688E4,2.047988E4,2.152444E4,8E0,2.302893E4,1.7E1,2.538595E4,-5.662869E2,-6.506589E2,-4.7915253E2,-6.9239264E2,-4.4707272E2,-5.2888336E2,-4.7619675E2,-4.1596426E2,-1.3053368E2,-3.8128308E2,-5.501893E2,-4.41779E2,-3.7473853E2,-2.967432E2,-4.0612556E1,-2.3624985E2,-3.430329E2,-3.9301956E2,-3.4124945E2,-1.8342458E2,-2.6352588E2,-1.0826302E2,1.7144218E2,-7.1957214E1,-2.7897897E2,-2.0885939E2,2.9438032E1,-1.7497916E2,-7.225169E1,2.2632588E2,2.4831003E1,1.5544519E2,4.1512637E2,2.5134346E2,1.22334145E2,2.4888759E2,-1.8983878E2,-1.2900255E2,-5.037881E1,-1.1165255E2,4.9278015E1,-4.0885654E1,4.2630283E1,1.3391107E2,4.0718912E2,5.373268E2,2.764585E2,3.5682123E2,9.118009E1,1.8118716E2,1.9445403E2,3.177201E2,6.205249E2,4.7001114E2,3.2618396E2,4.0714478E2,5.7780707E2,4.7744327E2,6.2105255E2,7.208011E2],"split_indices":[0,0,0,0,0,1,0,0,1,1,1,0,0,1,0,5,1,0,1,1,5,1,5,1,1,0,0,1,0,1,0,0,0,3,1,3,1,3,0,0,3,1,1,1,3,0,2,1,5,2,1,5,1,1,5,5,0,5,5,1,5,1,0,0,0,0,0,0,0,0,0,0,0,0,0,0,0,0,0,0,0,0,0,0,0,0,0,0,0,0,0,0,0,0,0,0,0,0,0,0,0,0,0,0,0,0,0,0,0,0,0,0,0,0,0,0,0,0,0,0,0,0,0],"split_type":[0,0,0,0,0,0,0,0,0,0,0,0,0,0,0,0,0,0,0,0,0,0,0,0,0,0,0,0,0,0,0,0,0,0,0,0,0,0,0,0,0,0,0,0,0,0,0,0,0,0,0,0,0,0,0,0,0,0,0,0,0,0,0,0,0,0,0,0,0,0,0,0,0,0,0,0,0,0,0,0,0,0,0,0,0,0,0,0,0,0,0,0,0,0,0,0,0,0,0,0,0,0,0,0,0,0,0,0,0,0,0,0,0,0,0,0,0,0,0,0,0,0,0],"sum_hessian":[5.0361E4,2.2044E4,2.8317E4,6.89E3,1.5154E4,1.4538E4,1.3779E4,2.164E3,4.726E3,7.084E3,8.07E3,1.059E4,3.948E3,8.271E3,5.508E3,1.97E2,1.967E3,2.498E3,2.228E3,4.465E3,2.619E3,3.739E3,4.331E3,4.36E3,6.23E3,1.72E3,2.228E3,7.1E3,1.171E3,2.753E3,2.755E3,1.3E2,6.7E1,1.186E3,7.81E2,1.441E3,1.057E3,1.217E3,1.011E3,2.866E3,1.599E3,2.162E3,4.57E2,2.096E3,1.643E3,3.237E3,1.094E3,1.242E3,3.118E3,2.131E3,4.099E3,7.81E2,9.39E2,1.249E3,9.79E2,7.46E2,6.354E3,5.07E2,6.64E2,1.931E3,8.22E2,1.966E3,7.89E2,5.28E2,6.58E2,6.19E2,1.62E2,3.98E2,1.043E3,2.5E2,8.07E2,4.73E2,7.44E2,5.09E2,5.02E2,1.53E3,1.336E3,7.5E2,8.49E2,9.81E2,1.181E3,2.74E2,1.83E2,8.82E2,1.214E3,9.54E2,6.89E2,2.152E3,1.085E3,1.95E2,8.99E2,2.11E2,1.031E3,2.767E3,3.51E2,1.81E2,1.95E3,3.094E3,1.005E3,3.8E2,4.01E2,2.82E2,6.57E2,3.17E2,9.32E2,7.27E2,2.52E2,5.4E2,2.06E2,3.474E3,2.88E3,3.78E2,1.29E2,5.93E2,7.1E1,1.32E2,1.799E3,6.3E2,1.92E2,1.268E3,6.98E2,5.91E2,1.98E2],"tree_param":{"num_deleted":"0","num_feature":"6","num_nodes":"123","size_leaf_vector":"1"}},{"base_weights":[-2.1581689E-1,-6.069359E2,6.4501E2,-9.45454E2,-2.7791214E2,3.6983542E2,9.789245E2,-1.2112163E3,-7.681328E2,-4.34202E2,-5.0420986E1,4.6103754E2,4.419631E1,8.351673E2,1.3087792E3,-1.4742616E3,-1.114096E3,-9.21376E2,-6.8677734E2,-1.2605895E2,-4.846442E2,4.90014E2,-1.8621149E2,8.202414E2,4.1624686E2,-1.0082514E2,1.5072527E2,8.888796E2,5.4966187E2,1.2367399E3,1.5338091E3,-1.312455E3,-1.5521685E3,-9.9661475E2,-1.218363E3,-1.0447909E3,-8.576362E2,-4.645416E2,-8.95599E2,4.6166953E2,-4.4235184E2,-5.579673E2,-3.4359915E2,5.916246E2,-3.9075244E2,-3.7084848E2,-5.2503082E1,1.1489774E3,3.6494183E2,5.811224E2,2.948747E2,-1.7351677E2,8.342036E0,7.615543E1,2.7983228E2,8.110494E2,1.0361875E3,4.166914E2,6.852534E2,1.2664137E3,2.326007E2,1.4843344E3,5.156206E2,-4.3453918E2,-2.8525613E2,-4.8441183E2,-3.8808835E2,-3.4162387E2,-2.0341505E2,-4.0367105E2,-3.1634268E2,-3.2886563E2,-2.7962756E2,-2.8244775E2,-2.3131873E2,1.222563E1,-1.5972128E2,-2.450006E2,-2.99069E2,-1.7642319E2,2.0183907E2,-1.8694691E2,-5.7048496E1,-1.3188521E2,-2.052647E2,-1.206478E2,-7.4674065E1,1.2922086E2,2.562598E2,-1.9989241E2,-7.5437675E1,-1.4126978E2,-6.113859E1,-3.7644264E1,5.9306587E1,2.604535E2,3.771174E2,2.4591057E2,5.2054897E1,1.3130792E2,2.125766E2,5.1748043E1,1.194338E2,4.2368267E1,-5.832948E1,2.3633326E1,-5.491592E1,-3.9582193E-1,4.643934E1,1.0830538E2,6.1801945E1,3.3574457E2,2.3154578E2,2.9426108E2,3.651677E2,1.15160095E2,2.1990552E2,2.3361174E2,1.7911777E2,4.321127E2,3.632111E2,4.5795505E2,4.0206158E2],"categories":[],"categories_nodes":[],"categories_segments":[],"categories_sizes":[],"default_left":[0,0,0,0,0,0,0,0,0,0,0,0,0,0,0,0,0,0,0,0,0,0,0,0,0,0,0,0,0,0,0,0,0,0,0,0,0,0,0,0,0,0,0,0,0,0,0,0,0,0,0,0,0,0,0,0,0,0,0,0,0,0,0,0,0,0,0,0,0,0,0,0,0,0,0,0,0,0,0,0,0,0,0,0,0,0,0,0,0,0,0,0,0,0,0,0,0,0,0,0,0,0,0,0,0,0,0,0,0,0,0,0,0,0,0,0,0,0,0,0,0,0,0],"id":4,"left_children":[1,3,5,7,9,11,13,15,17,19,21,23,25,27,29,31,33,35,37,39,41,43,45,47,49,51,53,55,57,59,61,63,65,67,69,71,73,75,77,79,81,83,85,87,89,91,93,95,97,99,101,103,105,107,109,111,113,115,117,119,-1,121,-1,-1,-1,-1,-1,-1,-1,-1,-1,-1,-1,-1,-1,-1,-1,-1,-1,-1,-1,-1,-1,-1,-1,-1,-1,-1,-1,-1,-1,-1,-1,-1,-1,-1,-1,-1,-1,-1,-1,-1,-1,-1,-1,-1,-1,-1,-1,-1,-1,-1,-1,-1,-1,-1,-1,-1,-1,-1,-1,-1,-1],"loss_changes":[1.9715676E10,2.8907284E9,2.2422702E9,6.0194406E8,4.6801824E8,3.9741146E8,5.217495E8,1.2910694E8,9.50656E7,1.2122432E8,3.9358662E8,1.678528E8,4.526527E7,1.1731558E8,5.232896E7,1.5321344E7,4.462336E7,2.0020736E7,2.3245747E8,2.0450208E8,6.915034E7,9.66175E7,1.0579123E8,1.7290246E8,1.8587392E8,9.849453E6,1.6239516E7,7.326925E7,2.169264E7,3.378099E7,4.832256E6,2.0950912E7,1.2850688E7,7.914368E7,3.981773E7,4.20032E6,1.2043776E7,8.345062E7,1.9862144E7,8.57233E7,3.2483472E7,6.5591296E7,1.2630784E7,4.044096E7,4.13136E6,2.9988896E7,4.5433536E7,1.9303168E7,4.2252416E7,7.174067E7,6.761373E7,4.931664E6,6.714502E6,6.5316905E6,3.629672E6,5.0311936E7,2.1148672E7,6.135472E6,4.496704E6,2.136064E7,0E0,1.869568E6,0E0,0E0,0E0,0E0,0E0,0E0,0E0,0E0,0E0,0E0,0E0,0E0,0E0,0E0,0E0,0E0,0E0,0E0,0E0,0E0,0E0,0E0,0E0,0E0,0E0,0E0,0E0,0E0,0E0,0E0,0E0,0E0,0E0,0E0,0E0,0E0,0E0,0E0,0E0,0E0,0E0,0E0,0E0,0E0,0E0,0E0,0E0,0E0,0E0,0E0,0E0,0E0,0E0,0E0,0E0,0E0,0E0,0E0,0E0,0E0,0E0],"parents":[2147483647,0,0,1,1,2,2,3,3,4,4,5,5,6,6,7,7,8,8,9,9,10,10,11,11,12,12,13,13,14,14,15,15,16,16,17,17,18,18,19,19,20,20,21,21,22,22,23,23,24,24,25,25,26,26,27,27,28,28,29,29,30,30,31,31,32,32,33,33,34,34,35,35,36,36,37,37,38,38,39,39,40,40,41,41,42,42,43,43,44,44,45,45,46,46,47,47,48,48,49,49,50,50,51,51,52,52,53,53,54,54,55,55,56,56,57,57,58,58,59,59,61,61],"right_children":[2,4,6,8,10,12,14,16,18,20,22,24,26,28,30,32,34,36,38,40,42,44,46,48,50,52,54,56,58,60,62,64,66,68,70,72,74,76,78,80,82,84,86,88,90,92,94,96,98,100,102,104,106,108,110,112,114,116,118,120,-1,122,-1,-1,-1,-1,-1,-1,-1,-1,-1,-1,-1,-1,-1,-1,-1,-1,-1,-1,-1,-1,-1,-1,-1,-1,-1,-1,-1,-1,-1,-1,-1,-1,-1,-1,-1,-1,-1,-1,-1,-1,-1,-1,-1,-1,-1,-1,-1,-1,-1,-1,-1,-1,-1,-1,-1,-1,-1,-1,-1,-1,-1],"split_conditions":[1.929555E4,1.634703E4,2.170295E4,1.485469E4,1.89589E4,1.9E1,2.36381E4,1.340725E4,3E0,1E0,6E0,1E0,2.013148E4,1.9E1,2.465524E4,3E0,5E0,1E0,9E0,7E0,1.776408E4,5E0,1.784973E4,5E0,1.1E1,1.870276E4,1.976769E4,2.273248E4,2.26264E4,2E1,2.538595E4,1E0,1.614418E4,4E0,1.593549E4,1.586538E4,1.557538E4,1E0,2.1E1,5E0,1.838673E4,1.2E1,1.776408E4,2.020043E4,2.057585E4,2.04503E4,2.170144E4,2.027589E4,1.7E1,2.063784E4,2.060695E4,2E1,2.035048E4,2.073739E4,4E0,1E0,2.357483E4,2.145779E4,2E1,1E0,2.326007E2,4E0,5.156206E2,-4.3453918E2,-2.8525613E2,-4.8441183E2,-3.8808835E2,-3.4162387E2,-2.0341505E2,-4.0367105E2,-3.1634268E2,-3.2886563E2,-2.7962756E2,-2.8244775E2,-2.3131873E2,1.222563E1,-1.5972128E2,-2.450006E2,-2.99069E2,-1.7642319E2,2.0183907E2,-1.8694691E2,-5.7048496E1,-1.3188521E2,-2.052647E2,-1.206478E2,-7.4674065E1,1.2922086E2,2.562598E2,-1.9989241E2,-7.5437675E1,-1.4126978E2,-6.113859E1,-3.7644264E1,5.9306587E1,2.604535E2,3.771174E2,2.4591057E2,5.2054897E1,1.3130792E2,2.125766E2,5.1748043E1,1.194338E2,4.2368267E1,-5.832948E1,2.3633326E1,-5.491592E1,-3.9582193E-1,4.643934E1,1.0830538E2,6.1801945E1,3.3574457E2,2.3154578E2,2.9426108E2,3.651677E2,1.15160095E2,2.1990552E2,2.3361174E2,1.7911777E2,4.321127E2,3.632111E2,4.5795505E2,4.0206158E2],"split_indices":[0,0,0,0,5,1,0,0,1,3,1,2,0,1,5,3,3,1,1,1,0,3,0,3,1,5,5,0,0,1,5,2,5,1,5,0,0,3,1,1,0,1,5,5,5,5,5,0,1,0,0,1,5,0,3,2,5,5,1,3,0,3,0,0,0,0,0,0,0,0,0,0,0,0,0,0,0,0,0,0,0,0,0,0,0,0,0,0,0,0,0,0,0,0,0,0,0,0,0,0,0,0,0,0,0,0,0,0,0,0,0,0,0,0,0,0,0,0,0,0,0,0,0],"split_type":[0,0,0,0,0,0,0,0,0,0,0,0,0,0,0,0,0,0,0,0,0,0,0,0,0,0,0,0,0,0,0,0,0,0,0,0,0,0,0,0,0,0,0,0,0,0,0,0,0,0,0,0,0,0,0,0,0,0,0,0,0,0,0,0,0,0,0,0,0,0,0,0,0,0,0,0,0,0,0,0,0,0,0,0,0,0,0,0,0,0,0,0,0,0,0,0,0,0,0,0,0,0,0,0,0,0,0,0,0,0,0,0,0,0,0,0,0,0,0,0,0,0,0],"sum_hessian":[5.0361E4,2.5955E4,2.4406E4,1.2792E4,1.3163E4,1.3381E4,1.1025E4,5.117E3,7.675E3,7.802E3,5.361E3,1.0453E4,2.928E3,7.681E3,3.344E3,1.376E3,3.741E3,2.658E3,5.017E3,1.098E3,6.704E3,1.076E3,4.285E3,1.157E3,9.296E3,1.24E3,1.688E3,6.463E3,1.218E3,2.538E3,8.06E2,4.53E2,9.23E2,1.764E3,1.977E3,9E2,1.758E3,2.432E3,2.585E3,3.84E2,7.14E2,4.409E3,2.295E3,9.65E2,1.11E2,1.799E3,2.486E3,6.71E2,4.86E2,3.94E3,5.356E3,7.44E2,4.96E2,1.071E3,6.17E2,4.233E3,2.23E3,6.17E2,6.01E2,2.383E3,1.55E2,6.43E2,1.63E2,3.27E2,1.26E2,7.39E2,1.84E2,1.218E3,5.46E2,1.109E3,8.68E2,6.12E2,2.88E2,8.88E2,8.7E2,2.88E2,2.144E3,1.458E3,1.127E3,6.4E1,3.2E2,4.15E2,2.99E2,2.278E3,2.131E3,1.416E3,8.79E2,6E2,3.65E2,3.6E1,7.5E1,1.124E3,6.75E2,1.925E3,5.61E2,1.89E2,4.82E2,1.43E2,3.43E2,1.856E3,2.084E3,2.452E3,2.904E3,4.6E1,6.98E2,3.63E2,1.33E2,5.4E2,5.31E2,2.92E2,3.25E2,4.75E2,3.758E3,1.713E3,5.17E2,5.61E2,5.6E1,2.88E2,3.13E2,5.72E2,1.811E3,4.9E2,1.53E2],"tree_param":{"num_deleted":"0","num_feature":"6","num_nodes":"123","size_leaf_vector":"1"}},{"base_weights":[-1.409697E-1,-4.1905566E2,4.594703E2,-6.6589136E2,-1.9288629E2,2.9561475E2,7.300037E2,-8.447336E2,-5.351321E2,-3.1065985E2,-4.230083E1,3.5573132E2,5.7857372E1,6.249761E2,9.270783E2,-7.911286E2,-1.1187019E3,-5.918594E2,-4.1336725E2,-1.5977213E2,-3.7703418E2,3.1903394E2,-1.3315007E2,2.6017413E2,4.6991983E2,-2.0854252E1,1.7643202E2,6.863221E2,4.2898196E2,8.645347E2,1.0632772E3,-6.440943E2,-9.011511E2,-1.3979408E3,-1.0340941E3,-5.2172015E2,-7.274298E2,-1.325177E2,-5.900394E2,2.4749464E1,-3.7645898E2,-4.576926E2,-2.641241E2,3.9248337E2,-3.1213605E2,-2.4925452E2,-1.7614544E1,5.246075E2,2.2181343E2,8.121559E2,4.2968018E2,-8.956781E1,7.345228E1,1.14287964E2,3.273059E2,6.357023E2,9.1829456E2,3.4251794E2,5.281044E2,9.3651575E2,7.329274E2,1.1387886E3,9.51213E2,-2.4145654E2,8.247624E-1,-2.9315887E2,-2.0837582E2,-5.146109E2,-3.944559E2,-3.605868E2,-2.8756583E2,-1.8146123E2,-1.2081165E2,-2.283238E2,-1.3227591E2,-1.7079758E2,-2.0241022E1,-1.979637E2,-1.1052486E2,-9.758294E1,6.2491734E1,-1.3206535E2,-7.0996445E1,-1.1705467E2,-1.64044E2,-9.8529106E1,-6.272476E1,4.5006195E1,1.5537225E2,-2.0759908E2,-6.07961E1,-9.8049904E1,-3.862808E1,-1.728629E1,5.3567234E1,2.338145E2,1.4191121E2,5.178361E1,1.2007001E2,2.9435355E2,1.0319068E2,1.6902095E2,9.791944E1,-3.374757E1,2.9397753E1,4.6666283E1,-1.8779066E1,6.478177E1,2.3027248E1,1.2942119E2,7.2544556E1,2.2276009E2,1.3294055E2,2.84728E2,7.625836E1,9.55702E1,1.3937035E2,1.8492865E2,1.5121045E2,2.6046585E2,3.6567413E2,2.3160313E2,1.6154213E2,3.2333588E2,3.6859467E2,2.6028375E2,3.182074E2],"categories":[],"categories_nodes":[],"categories_segments":[],"categories_sizes":[],"default_left":[0,0,0,0,0,0,0,0,0,0,0,0,0,0,0,0,0,0,0,0,0,0,0,0,0,0,0,0,0,0,0,0,0,0,0,0,0,0,0,0,0,0,0,0,0,0,0,0,0,0,0,0,0,0,0,0,0,0,0,0,0,0,0,0,0,0,0,0,0,0,0,0,0,0,0,0,0,0,0,0,0,0,0,0,0,0,0,0,0,0,0,0,0,0,0,0,0,0,0,0,0,0,0,0,0,0,0,0,0,0,0,0,0,0,0,0,0,0,0,0,0,0,0,0,0,0,0],"id":5,"left_children":[1,3,5,7,9,11,13,15,17,19,21,23,25,27,29,31,33,35,37,39,41,43,45,47,49,51,53,55,57,59,61,63,65,67,69,71,73,75,77,79,81,83,85,87,89,91,93,95,97,99,101,103,105,107,109,111,113,115,117,119,121,123,125,-1,-1,-1,-1,-1,-1,-1,-1,-1,-1,-1,-1,-1,-1,-1,-1,-1,-1,-1,-1,-1,-1,-1,-1,-1,-1,-1,-1,-1,-1,-1,-1,-1,-1,-1,-1,-1,-1,-1,-1,-1,-1,-1,-1,-1,-1,-1,-1,-1,-1,-1,-1,-1,-1,-1,-1,-1,-1,-1,-1,-1,-1,-1,-1],"loss_changes":[9.696787E9,1.4707932E9,1.06433075E9,2.9415578E8,2.4386064E8,2.1377651E8,1.8690509E8,7.723008E7,5.0041216E7,7.721606E7,1.9818619E8,1.3015053E8,2.8189952E7,7.078835E7,2.5888256E7,7.143987E7,1.9061504E7,4.682227E7,1.1488742E8,9.433016E7,4.86752E7,5.635608E7,6.470565E7,6.5838944E7,7.454029E7,1.1774508E7,1.1260576E7,5.226893E7,1.1920688E7,1.979456E7,7.260416E6,1.9851354E8,3.92832E7,2.993088E6,7.343872E6,3.2166208E7,1.5957632E7,2.5419902E7,2.1766688E7,8.198583E7,9.567232E6,1.8582464E7,7.842128E6,3.2978688E7,5.14145E6,2.244864E7,1.8994936E7,1.0444496E7,4.9792896E7,4.484813E7,6.704896E7,4.529955E6,8.565887E6,3.245267E6,3.019376E6,7.574694E7,1.6203264E7,2.06484E6,1.083904E6,2.5827456E7,5.428576E6,1.877056E6,2.76816E6,0E0,0E0,0E0,0E0,0E0,0E0,0E0,0E0,0E0,0E0,0E0,0E0,0E0,0E0,0E0,0E0,0E0,0E0,0E0,0E0,0E0,0E0,0E0,0E0,0E0,0E0,0E0,0E0,0E0,0E0,0E0,0E0,0E0,0E0,0E0,0E0,0E0,0E0,0E0,0E0,0E0,0E0,0E0,0E0,0E0,0E0,0E0,0E0,0E0,0E0,0E0,0E0,0E0,0E0,0E0,0E0,0E0,0E0,0E0,0E0,0E0,0E0,0E0,0E0],"parents":[2147483647,0,0,1,1,2,2,3,3,4,4,5,5,6,6,7,7,8,8,9,9,10,10,11,11,12,12,13,13,14,14,15,15,16,16,17,17,18,18,19,19,20,20,21,21,22,22,23,23,24,24,25,25,26,26,27,27,28,28,29,29,30,30,31,31,32,32,33,33,34,34,35,35,36,36,37,37,38,38,39,39,40,40,41,41,42,42,43,43,44,44,45,45,46,46,47,47,48,48,49,49,50,50,51,51,52,52,53,53,54,54,55,55,56,56,57,57,58,58,59,59,60,60,61,61,62,62],"right_children":[2,4,6,8,10,12,14,16,18,20,22,24,26,28,30,32,34,36,38,40,42,44,46,48,50,52,54,56,58,60,62,64,66,68,70,72,74,76,78,80,82,84,86,88,90,92,94,96,98,100,102,104,106,108,110,112,114,116,118,120,122,124,126,-1,-1,-1,-1,-1,-1,-1,-1,-1,-1,-1,-1,-1,-1,-1,-1,-1,-1,-1,-1,-1,-1,-1,-1,-1,-1,-1,-1,-1,-1,-1,-1,-1,-1,-1,-1,-1,-1,-1,-1,-1,-1,-1,-1,-1,-1,-1,-1,-1,-1,-1,-1,-1,-1,-1,-1,-1,-1,-1,-1,-1,-1,-1,-1],"split_conditions":[1.937966E4,1.631201E4,2.206931E4,1.490733E4,1.870276E4,1.9E1,2.371159E4,1E0,1E0,2E0,6E0,2.098428E4,2.070059E4,1.8E1,2.465524E4,5E0,1.36324E4,5E0,8E0,2E1,1.749806E4,5E0,1.814383E4,7E0,1E0,1.89589E4,2.031304E4,1.5E1,2.29614E4,1.7E1,1.7E1,4E0,1.645589E4,1.229948E4,5E0,3E0,1.795754E4,4E0,1.6E1,4E0,2.3E1,5E0,1.745474E4,1.942894E4,1.946506E4,2.04503E4,2.195185E4,1.763326E4,1.7E1,5E0,1.1E1,2.3E1,5E0,1.870276E4,4E0,1.2E1,5E0,2.19926E4,1.994099E4,1.5E1,2E1,2.510764E4,2.510764E4,-2.4145654E2,8.247624E-1,-2.9315887E2,-2.0837582E2,-5.146109E2,-3.944559E2,-3.605868E2,-2.8756583E2,-1.8146123E2,-1.2081165E2,-2.283238E2,-1.3227591E2,-1.7079758E2,-2.0241022E1,-1.979637E2,-1.1052486E2,-9.758294E1,6.2491734E1,-1.3206535E2,-7.0996445E1,-1.1705467E2,-1.64044E2,-9.8529106E1,-6.272476E1,4.5006195E1,1.5537225E2,-2.0759908E2,-6.07961E1,-9.8049904E1,-3.862808E1,-1.728629E1,5.3567234E1,2.338145E2,1.4191121E2,5.178361E1,1.2007001E2,2.9435355E2,1.0319068E2,1.6902095E2,9.791944E1,-3.374757E1,2.9397753E1,4.6666283E1,-1.8779066E1,6.478177E1,2.3027248E1,1.2942119E2,7.2544556E1,2.2276009E2,1.3294055E2,2.84728E2,7.625836E1,9.55702E1,1.3937035E2,1.8492865E2,1.5121045E2,2.6046585E2,3.6567413E2,2.3160313E2,1.6154213E2,3.2333588E2,3.6859467E2,2.6028375E2,3.182074E2],"split_indices":[0,0,0,0,5,1,0,4,2,3,1,0,0,1,0,3,5,3,1,1,0,3,0,1,2,5,5,1,0,1,1,1,5,5,1,1,5,1,1,1,1,3,5,5,5,5,5,5,1,3,1,1,3,5,3,1,3,5,5,1,1,0,0,0,0,0,0,0,0,0,0,0,0,0,0,0,0,0,0,0,0,0,0,0,0,0,0,0,0,0,0,0,0,0,0,0,0,0,0,0,0,0,0,0,0,0,0,0,0,0,0,0,0,0,0,0,0,0,0,0,0,0,0,0,0,0,0],"split_type":[0,0,0,0,0,0,0,0,0,0,0,0,0,0,0,0,0,0,0,0,0,0,0,0,0,0,0,0,0,0,0,0,0,0,0,0,0,0,0,0,0,0,0,0,0,0,0,0,0,0,0,0,0,0,0,0,0,0,0,0,0,0,0,0,0,0,0,0,0,0,0,0,0,0,0,0,0,0,0,0,0,0,0,0,0,0,0,0,0,0,0,0,0,0,0,0,0,0,0,0,0,0,0,0,0,0,0,0,0,0,0,0,0,0,0,0,0,0,0,0,0,0,0,0,0,0,0],"sum_hessian":[5.0361E4,2.6347E4,2.4014E4,1.2597E4,1.375E4,1.4957E4,9.057E3,5.318E3,7.279E3,7.715E3,6.035E3,1.1938E4,3.019E3,5.911E3,3.146E3,4.451E3,8.67E2,4.963E3,2.316E3,2.358E3,5.357E3,1.212E3,4.823E3,6.501E3,5.437E3,1.815E3,1.204E3,4.5E3,1.411E3,2.161E3,9.85E2,1.908E3,2.543E3,1.98E2,6.69E2,3.274E3,1.689E3,8.95E2,1.421E3,1.274E3,1.084E3,3.123E3,2.234E3,1.086E3,1.26E2,2.405E3,2.418E3,8.22E2,5.679E3,5.7E2,4.867E3,1.05E3,7.65E2,8.54E2,3.5E2,3.697E3,8.03E2,7.56E2,6.55E2,1.393E3,7.68E2,5.83E2,4.02E2,1.528E3,3.8E2,1.856E3,6.87E2,3.7E1,1.61E2,2.03E2,4.66E2,1.925E3,1.349E3,1.51E3,1.79E2,1.15E2,7.8E2,1.079E3,3.42E2,4.38E2,8.36E2,7.43E2,3.41E2,1.78E3,1.343E3,1.028E3,1.206E3,3.71E2,7.15E2,2.7E1,9.9E1,1.462E3,9.43E2,2.009E3,4.09E2,1.36E2,6.86E2,4.453E3,1.226E3,4.18E2,1.52E2,2.119E3,2.748E3,9.36E2,1.14E2,4.77E2,2.88E2,2.29E2,6.25E2,1.56E2,1.94E2,2.376E3,1.321E3,7.67E2,3.6E1,6.35E2,1.21E2,1.35E2,5.2E2,1.125E3,2.68E2,6.37E2,1.31E2,3.55E2,2.28E2,2.33E2,1.69E2],"tree_param":{"num_deleted":"0","num_feature":"6","num_nodes":"127","size_leaf_vector":"1"}},{"base_weights":[-8.2945086E-2,-3.498472E2,2.7220157E2,-5.349027E2,-2.3447682E2,1.3353801E2,4.7736823E2,-7.202071E2,-4.786243E2,-3.103154E2,-1.3468057E2,3.2510986E1,2.3914658E2,4.0131305E2,6.335005E2,-6.754372E2,-8.6008105E2,-4.5273523E2,-6.6721436E2,-1.089267E2,-3.402167E2,2.0832333E1,-2.5435909E2,2.1141069E2,-3.9408375E1,3.605809E2,1.7829774E2,5.209081E2,3.4351517E2,6.8883405E2,5.399237E2,-7.494668E2,-5.2676874E2,-3.6429022E2,-8.273112E2,-5.3689856E2,-3.3111633E2,-7.845184E2,-5.761484E2,1.5248438E2,-3.7646735E2,-4.7809256E2,-3.1759235E2,1.6148633E2,-1.5242145E2,-3.8495068E2,-1.20099785E2,1.1630028E2,3.5013565E2,-1.5812091E2,-4.021339E0,4.470761E2,3.0219174E2,1.3124417E2,2.7534308E2,6.9375507E2,4.6917828E2,2.9593097E2,4.7504764E2,6.356304E2,8.721641E2,4.463996E2,6.1646E2,-2.1478673E2,-2.9141455E2,1.2143904E2,-2.052177E2,-2.5580936E2,-1.6620963E2,-1.9779353E2,-1.509693E2,7.657703E1,-1.1306391E2,-3.043915E2,-2.2716809E2,-2.3829872E2,-1.4842152E2,-8.836255E1,1.5258406E2,-1.269742E2,-6.7648445E1,-1.4856537E2,-1.13575264E2,-7.954956E1,-1.19016624E2,5.596002E1,-3.2415964E2,-1.2426175E2,-6.96232E0,-8.248635E1,-1.4934093E2,-7.97395E1,5.407096E1,-6.123748E1,4.464941E1,1.5988379E2,5.7882168E1,-5.8805332E1,1.2954745E1,-1.9631649E1,6.315237E1,2.0144446E2,1.18907394E2,6.459435E1,1.0367776E2,7.006758E1,2.8420643E1,3.121972E1,1.19973946E2,3.323844E2,1.887844E2,1.294503E2,1.5810516E2,1.3026338E2,7.373794E1,1.5895888E2,5.1552006E1,2.1248892E2,1.3599135E2,3.2058795E2,2.4632808E2,1.22374405E2,1.5259727E2,1.9190112E2,9.347754E1],"categories":[],"categories_nodes":[],"categories_segments":[],"categories_sizes":[],"default_left":[0,0,0,0,0,0,0,0,0,0,0,0,0,0,0,0,0,0,0,0,0,0,0,0,0,0,0,0,0,0,0,0,0,0,0,0,0,0,0,0,0,0,0,0,0,0,0,0,0,0,0,0,0,0,0,0,0,0,0,0,0,0,0,0,0,0,0,0,0,0,0,0,0,0,0,0,0,0,0,0,0,0,0,0,0,0,0,0,0,0,0,0,0,0,0,0,0,0,0,0,0,0,0,0,0,0,0,0,0,0,0,0,0,0,0,0,0,0,0,0,0,0,0,0,0],"id":6,"left_children":[1,3,5,7,9,11,13,15,17,19,21,23,25,27,29,31,33,35,37,39,41,43,45,47,49,51,53,55,57,59,61,63,65,-1,67,69,71,73,75,77,79,81,83,85,87,89,91,93,95,97,99,101,103,105,107,109,111,113,115,117,119,121,123,-1,-1,-1,-1,-1,-1,-1,-1,-1,-1,-1,-1,-1,-1,-1,-1,-1,-1,-1,-1,-1,-1,-1,-1,-1,-1,-1,-1,-1,-1,-1,-1,-1,-1,-1,-1,-1,-1,-1,-1,-1,-1,-1,-1,-1,-1,-1,-1,-1,-1,-1,-1,-1,-1,-1,-1,-1,-1,-1,-1,-1,-1],"loss_changes":[4.796339E9,4.7053363E8,8.055589E8,8.79337E7,1.027447E8,1.8029302E8,1.3535462E8,1.175552E7,3.1414144E7,4.642707E7,1.0918067E8,1.1114789E8,6.098477E7,5.29216E7,1.8988416E7,1.608096E7,4.497472E6,5.832013E7,7.901632E6,6.992556E7,2.0803968E7,6.2213884E7,5.8076096E7,3.2641272E7,2.5885214E7,1.3788864E7,2.5106064E7,2.20368E7,3.2292928E7,2.2328192E7,9.703072E6,6.718912E6,7.36865E7,0E0,2.559296E6,1.3581888E7,6.2888736E7,1.360704E6,7.493392E6,8.070453E7,3.393432E6,1.42288E6,2.3848512E7,4.4033996E7,3.868748E7,2.071752E7,7.163693E7,1.536376E7,2.8835208E7,1.0803168E7,6.25727E7,1.2355856E7,6.1432E6,1.3836088E7,3.829925E7,1.46312E7,3.974112E6,2.62944E7,2.2762016E7,2.3818496E7,4.390144E6,1.304384E6,5.206848E6,0E0,0E0,0E0,0E0,0E0,0E0,0E0,0E0,0E0,0E0,0E0,0E0,0E0,0E0,0E0,0E0,0E0,0E0,0E0,0E0,0E0,0E0,0E0,0E0,0E0,0E0,0E0,0E0,0E0,0E0,0E0,0E0,0E0,0E0,0E0,0E0,0E0,0E0,0E0,0E0,0E0,0E0,0E0,0E0,0E0,0E0,0E0,0E0,0E0,0E0,0E0,0E0,0E0,0E0,0E0,0E0,0E0,0E0,0E0,0E0,0E0,0E0],"parents":[2147483647,0,0,1,1,2,2,3,3,4,4,5,5,6,6,7,7,8,8,9,9,10,10,11,11,12,12,13,13,14,14,15,15,16,16,17,17,18,18,19,19,20,20,21,21,22,22,23,23,24,24,25,25,26,26,27,27,28,28,29,29,30,30,31,31,32,32,34,34,35,35,36,36,37,37,38,38,39,39,40,40,41,41,42,42,43,43,44,44,45,45,46,46,47,47,48,48,49,49,50,50,51,51,52,52,53,53,54,54,55,55,56,56,57,57,58,58,59,59,60,60,61,61,62,62],"right_children":[2,4,6,8,10,12,14,16,18,20,22,24,26,28,30,32,34,36,38,40,42,44,46,48,50,52,54,56,58,60,62,64,66,-1,68,70,72,74,76,78,80,82,84,86,88,90,92,94,96,98,100,102,104,106,108,110,112,114,116,118,120,122,124,-1,-1,-1,-1,-1,-1,-1,-1,-1,-1,-1,-1,-1,-1,-1,-1,-1,-1,-1,-1,-1,-1,-1,-1,-1,-1,-1,-1,-1,-1,-1,-1,-1,-1,-1,-1,-1,-1,-1,-1,-1,-1,-1,-1,-1,-1,-1,-1,-1,-1,-1,-1,-1,-1,-1,-1,-1,-1,-1,-1,-1,-1],"split_conditions":[1.829349E4,1.557538E4,2.162928E4,1.375021E4,1.77207E4,2.027589E4,2.34983E4,1E0,2E1,1E0,9E0,1E1,1.1E1,1.1E1,1.7E1,4E0,1.229948E4,4E0,2.3E1,7E0,1E0,5E0,1.5E1,2.088973E4,1.5E1,8E0,2.09821E4,8E0,2.268203E4,1.5E1,2.417119E4,1E0,5E0,-3.6429022E2,1.776408E4,1E0,1.38382E4,1.441411E4,1.426575E4,5E0,1.771561E4,1.763376E4,2.1E1,1E0,1E0,1.2E1,6E0,1E0,5E0,6E0,2.016446E4,1.763326E4,9E0,1E0,1.5E1,1.853744E4,2.249198E4,1.986181E4,5E0,1.3E1,2.166183E4,2.336043E4,2E1,-2.1478673E2,-2.9141455E2,1.2143904E2,-2.052177E2,-2.5580936E2,-1.6620963E2,-1.9779353E2,-1.509693E2,7.657703E1,-1.1306391E2,-3.043915E2,-2.2716809E2,-2.3829872E2,-1.4842152E2,-8.836255E1,1.5258406E2,-1.269742E2,-6.7648445E1,-1.4856537E2,-1.13575264E2,-7.954956E1,-1.19016624E2,5.596002E1,-3.2415964E2,-1.2426175E2,-6.96232E0,-8.248635E1,-1.4934093E2,-7.97395E1,5.407096E1,-6.123748E1,4.464941E1,1.5988379E2,5.7882168E1,-5.8805332E1,1.2954745E1,-1.9631649E1,6.315237E1,2.0144446E2,1.18907394E2,6.459435E1,1.0367776E2,7.006758E1,2.8420643E1,3.121972E1,1.19973946E2,3.323844E2,1.887844E2,1.294503E2,1.5810516E2,1.3026338E2,7.373794E1,1.5895888E2,5.1552006E1,2.1248892E2,1.3599135E2,3.2058795E2,2.4632808E2,1.22374405E2,1.5259727E2,1.9190112E2,9.347754E1],"split_indices":[0,0,0,0,5,0,0,4,1,3,1,1,1,1,1,1,5,1,1,1,1,3,1,5,1,1,5,1,5,1,0,2,3,0,5,1,5,0,0,1,0,0,1,4,2,1,3,1,3,3,5,5,1,3,1,5,0,5,3,1,5,5,1,0,0,0,0,0,0,0,0,0,0,0,0,0,0,0,0,0,0,0,0,0,0,0,0,0,0,0,0,0,0,0,0,0,0,0,0,0,0,0,0,0,0,0,0,0,0,0,0,0,0,0,0,0,0,0,0,0,0,0,0,0,0],"split_type":[0,0,0,0,0,0,0,0,0,0,0,0,0,0,0,0,0,0,0,0,0,0,0,0,0,0,0,0,0,0,0,0,0,0,0,0,0,0,0,0,0,0,0,0,0,0,0,0,0,0,0,0,0,0,0,0,0,0,0,0,0,0,0,0,0,0,0,0,0,0,0,0,0,0,0,0,0,0,0,0,0,0,0,0,0,0,0,0,0,0,0,0,0,0,0,0,0,0,0,0,0,0,0,0,0,0,0,0,0,0,0,0,0,0,0,0,0,0,0,0,0,0,0,0,0],"sum_hessian":[5.0361E4,2.2044E4,2.8317E4,8.464E3,1.358E4,1.6898E4,1.1419E4,1.969E3,6.495E3,7.715E3,5.865E3,8.637E3,8.261E3,7.681E3,3.738E3,1.496E3,4.73E2,5.714E3,7.81E2,9.98E2,6.717E3,2.551E3,3.314E3,2.476E3,6.161E3,2.756E3,5.505E3,2.5E3,5.181E3,2.345E3,1.393E3,9.96E2,5E2,3.7E1,4.36E2,3.375E3,2.339E3,3.38E2,4.43E2,5.05E2,4.93E2,9.44E2,5.773E3,1.408E3,1.143E3,1.679E3,1.635E3,1.47E3,1.006E3,1.414E3,4.747E3,1.108E3,1.648E3,3.709E3,1.796E3,5.73E2,1.927E3,3.807E3,1.374E3,1.821E3,5.24E2,6.3E2,7.63E2,8.69E2,1.27E2,7.2E1,4.28E2,3.97E2,3.9E1,7.24E2,2.651E3,1.69E2,2.17E3,3.2E1,3.06E2,1.18E2,3.25E2,2.24E2,2.81E2,3.75E2,1.18E2,8.02E2,1.42E2,3.475E3,2.298E3,1.381E3,2.7E1,3.77E2,7.66E2,8.52E2,8.27E2,1.101E3,5.34E2,1.35E2,1.335E3,4.64E2,5.42E2,1.19E3,2.24E2,3.691E3,1.056E3,2.02E2,9.06E2,5.51E2,1.097E3,9.74E2,2.735E3,7.57E2,1.039E3,7.5E1,4.98E2,1.172E3,7.55E2,1.011E3,2.796E3,1.163E3,2.11E2,1.3E3,5.21E2,1.04E2,4.2E2,3.94E2,2.36E2,7.08E2,5.5E1],"tree_param":{"num_deleted":"0","num_feature":"6","num_nodes":"125","size_leaf_vector":"1"}},{"base_weights":[-6.390923E-2,-2.0300572E2,2.3331268E2,-3.2460162E2,-7.938305E1,1.6439758E2,3.9222708E2,-4.1498145E2,-2.5075287E2,-2.7867243E1,-1.8880545E2,2.499304E2,1.0975775E2,3.5103683E2,4.9899722E2,-3.8459048E2,-5.790782E2,-1.9546959E2,-3.1679184E2,-2.5103586E2,2.8477814E0,-2.9440088E2,-1.5377826E2,1.8500282E2,2.9131424E2,7.443171E1,2.375777E2,5.411927E2,3.2584344E2,4.7020993E2,6.115184E2,-3.004745E2,-4.5232635E2,-7.254676E2,-5.298137E2,-2.3293771E2,3.5997212E0,-3.663692E2,-1.5249152E2,-2.72526E2,1.5307582E1,1.26357086E2,-5.2448727E1,-3.4420837E2,-2.0082295E2,-1.8293146E2,-2.0837936E1,2.8194058E2,1.4752013E2,3.9687674E2,2.5714072E2,1.0411914E2,-4.242847E0,2.4433453E1,3.6554092E2,8.218624E2,4.910536E2,3.572778E2,2.5450685E2,2.308261E2,4.568027E2,7.9196124E2,5.712675E2,-1.1451655E2,7.444221E0,-1.5587383E2,-1.1435026E2,-2.0131233E2,-2.552596E2,-1.7470865E2,-1.0607326E2,-2.699416E1,-7.9232796E1,6.0254948E1,-1.1299087E2,-1.2244614E2,-8.990169E1,-6.496852E1,-2.5205942E1,-1.01921646E2,-5.592042E1,8.795107E0,-3.590867E1,-1.5008927E1,9.826462E1,2.002553E1,-4.3725285E1,-4.7011284E1,-1.2614765E2,-5.134068E1,-1.349758E2,-6.213696E1,-1.9215927E1,-2.115752E1,1.3039366E1,6.969737E1,1.3518263E2,3.9392315E1,1.5989793E2,1.12528404E2,2.6865213E2,9.770468E1,7.182804E1,9.777691E0,5.636905E1,-1.2831566E1,2.0153246E1,-3.818152E1,2.391605E1,1.6217343E2,1.8449318E1,3.16991E2,2.090326E2,1.8109698E2,1.2486533E2,9.077022E1,1.5537949E2,5.72592E1,8.556085E1,1.4881602E2,1.1872219E2,2.1484116E2,3.2962994E2,1.5454932E2,1.8566397E2],"categories":[],"categories_nodes":[],"categories_segments":[],"categories_sizes":[],"default_left":[0,0,0,0,0,0,0,0,0,0,0,0,0,0,0,0,0,0,0,0,0,0,0,0,0,0,0,0,0,0,0,0,0,0,0,0,0,0,0,0,0,0,0,0,0,0,0,0,0,0,0,0,0,0,0,0,0,0,0,0,0,0,0,0,0,0,0,0,0,0,0,0,0,0,0,0,0,0,0,0,0,0,0,0,0,0,0,0,0,0,0,0,0,0,0,0,0,0,0,0,0,0,0,0,0,0,0,0,0,0,0,0,0,0,0,0,0,0,0,0,0,0,0,0,0],"id":7,"left_children":[1,3,5,7,9,11,13,15,17,19,21,23,25,27,29,31,33,35,37,39,41,43,45,47,49,51,53,55,57,59,61,63,65,67,69,71,73,75,77,79,81,83,85,87,89,91,93,95,97,99,101,103,105,107,109,111,113,115,117,-1,119,121,123,-1,-1,-1,-1,-1,-1,-1,-1,-1,-1,-1,-1,-1,-1,-1,-1,-1,-1,-1,-1,-1,-1,-1,-1,-1,-1,-1,-1,-1,-1,-1,-1,-1,-1,-1,-1,-1,-1,-1,-1,-1,-1,-1,-1,-1,-1,-1,-1,-1,-1,-1,-1,-1,-1,-1,-1,-1,-1,-1,-1,-1,-1],"loss_changes":[2.385286E9,4.049065E8,2.564768E8,9.053491E7,7.529918E7,7.634221E7,3.0983808E7,3.0223232E7,2.7231872E7,6.226817E7,1.5770416E7,1.7059296E7,4.501413E7,2.4332736E7,6.0936E6,2.9229952E7,6.481312E6,3.037288E7,2.7679776E7,6.294584E6,5.454808E7,4.890064E6,1.2448608E7,8.97672E6,1.392368E7,1.8253512E7,5.887699E7,7.997712E6,1.00448E7,5.958784E6,2.438256E6,6.084861E7,1.345536E7,1.046544E6,6.424912E6,1.5247632E7,4.852666E7,7.16544E6,3.451918E6,5.82376E6,1.6048855E5,8.767064E7,6.1367976E7,9.84644E6,2.673948E6,7.564664E6,1.8529739E6,5.678044E6,1.1129032E7,9.971376E6,3.4916E6,3.3994476E7,5.8971355E6,6.81223E6,7.175898E7,1.877444E6,4.03796E6,2.7398176E7,2.65324E6,0E0,3.417952E6,8.41556E5,5.59992E5,0E0,0E0,0E0,0E0,0E0,0E0,0E0,0E0,0E0,0E0,0E0,0E0,0E0,0E0,0E0,0E0,0E0,0E0,0E0,0E0,0E0,0E0,0E0,0E0,0E0,0E0,0E0,0E0,0E0,0E0,0E0,0E0,0E0,0E0,0E0,0E0,0E0,0E0,0E0,0E0,0E0,0E0,0E0,0E0,0E0,0E0,0E0,0E0,0E0,0E0,0E0,0E0,0E0,0E0,0E0,0E0,0E0,0E0,0E0,0E0,0E0,0E0],"parents":[2147483647,0,0,1,1,2,2,3,3,4,4,5,5,6,6,7,7,8,8,9,9,10,10,11,11,12,12,13,13,14,14,15,15,16,16,17,17,18,18,19,19,20,20,21,21,22,22,23,23,24,24,25,25,26,26,27,27,28,28,29,29,30,30,31,31,32,32,33,33,34,34,35,35,36,36,37,37,38,38,39,39,40,40,41,41,42,42,43,43,44,44,45,45,46,46,47,47,48,48,49,49,50,50,51,51,52,52,53,53,54,54,55,55,56,56,57,57,58,58,60,60,61,61,62,62],"right_children":[2,4,6,8,10,12,14,16,18,20,22,24,26,28,30,32,34,36,38,40,42,44,46,48,50,52,54,56,58,60,62,64,66,68,70,72,74,76,78,80,82,84,86,88,90,92,94,96,98,100,102,104,106,108,110,112,114,116,118,-1,120,122,124,-1,-1,-1,-1,-1,-1,-1,-1,-1,-1,-1,-1,-1,-1,-1,-1,-1,-1,-1,-1,-1,-1,-1,-1,-1,-1,-1,-1,-1,-1,-1,-1,-1,-1,-1,-1,-1,-1,-1,-1,-1,-1,-1,-1,-1,-1,-1,-1,-1,-1,-1,-1,-1,-1,-1,-1,-1,-1,-1,-1,-1,-1],"split_conditions":[1.951256E4,1.649245E4,2.249198E4,1.509138E4,1.9E1,1.2E1,2.417119E4,1E0,5E0,2E0,1.718929E4,2.089078E4,2.166183E4,9E0,2.510764E4,5E0,1.38382E4,1.68736E4,1.881119E4,1.854278E4,1E0,2.3E1,2.3E1,7E0,8E0,2E1,1.5E1,1.891334E4,1.8E1,9E0,1E0,4E0,1.56552E4,1E0,1.5E1,1E0,1E0,1.6E1,1.963928E4,1E0,1.929555E4,5E0,1E1,2.1E1,1.676105E4,6E0,1.843239E4,2.176843E4,2.357483E4,2.357483E4,1.968263E4,1.6E1,2.092174E4,2.107645E4,1.8E1,8E0,8E0,1.5E1,2.302948E4,2.308261E2,1.7E1,2.107551E4,2.538595E4,-1.1451655E2,7.444221E0,-1.5587383E2,-1.1435026E2,-2.0131233E2,-2.552596E2,-1.7470865E2,-1.0607326E2,-2.699416E1,-7.9232796E1,6.0254948E1,-1.1299087E2,-1.2244614E2,-8.990169E1,-6.496852E1,-2.5205942E1,-1.01921646E2,-5.592042E1,8.795107E0,-3.590867E1,-1.5008927E1,9.826462E1,2.002553E1,-4.3725285E1,-4.7011284E1,-1.2614765E2,-5.134068E1,-1.349758E2,-6.213696E1,-1.9215927E1,-2.115752E1,1.3039366E1,6.969737E1,1.3518263E2,3.9392315E1,1.5989793E2,1.12528404E2,2.6865213E2,9.770468E1,7.182804E1,9.777691E0,5.636905E1,-1.2831566E1,2.0153246E1,-3.818152E1,2.391605E1,1.6217343E2,1.8449318E1,3.16991E2,2.090326E2,1.8109698E2,1.2486533E2,9.077022E1,1.5537949E2,5.72592E1,8.556085E1,1.4881602E2,1.1872219E2,2.1484116E2,3.2962994E2,1.5454932E2,1.8566397E2],"split_indices":[0,0,0,0,1,1,0,4,3,1,0,0,5,1,0,3,5,5,5,0,2,1,1,1,1,1,1,5,1,1,3,1,5,2,1,3,4,1,5,1,0,1,1,1,5,3,0,5,5,5,5,1,0,0,1,1,1,1,0,0,1,5,0,0,0,0,0,0,0,0,0,0,0,0,0,0,0,0,0,0,0,0,0,0,0,0,0,0,0,0,0,0,0,0,0,0,0,0,0,0,0,0,0,0,0,0,0,0,0,0,0,0,0,0,0,0,0,0,0,0,0,0,0,0,0],"split_type":[0,0,0,0,0,0,0,0,0,0,0,0,0,0,0,0,0,0,0,0,0,0,0,0,0,0,0,0,0,0,0,0,0,0,0,0,0,0,0,0,0,0,0,0,0,0,0,0,0,0,0,0,0,0,0,0,0,0,0,0,0,0,0,0,0,0,0,0,0,0,0,0,0,0,0,0,0,0,0,0,0,0,0,0,0,0,0,0,0,0,0,0,0,0,0,0,0,0,0,0,0,0,0,0,0,0,0,0,0,0,0,0,0,0,0,0,0,0,0,0,0,0,0,0,0],"sum_hessian":[5.0361E4,2.6937E4,2.3424E4,1.3579E4,1.3358E4,1.634E4,7.084E3,6.104E3,7.475E3,9.083E3,4.275E3,6.368E3,9.972E3,5.115E3,1.969E3,5.153E3,9.51E2,4.071E3,3.404E3,1.098E3,7.985E3,1.063E3,3.212E3,2.481E3,3.887E3,7.814E3,2.158E3,5.96E2,4.519E3,1.572E3,3.97E2,2.301E3,2.852E3,2.36E2,7.15E2,3.426E3,6.45E2,2.614E3,7.9E2,1.016E3,8.2E1,2.469E3,5.516E3,6.92E2,3.71E2,2.634E3,5.78E2,6.9E2,1.791E3,9.48E2,2.939E3,5.673E3,2.141E3,8.1E2,1.348E3,8.8E1,5.08E2,3.134E3,1.385E3,6.5E1,1.507E3,6.9E1,3.28E2,1.841E3,4.6E2,1.463E3,1.389E3,1.69E2,6.7E1,5.49E2,1.66E2,6.14E2,2.812E3,4.25E2,2.2E2,1.604E3,1.01E3,4.07E2,3.83E2,5.69E2,4.47E2,7.5E1,7E0,1.316E3,1.153E3,2.422E3,3.094E3,2.01E2,4.91E2,3.33E2,3.8E1,2.188E3,4.46E2,3.26E2,2.52E2,5.35E2,1.55E2,1.72E3,7.1E1,9.1E2,3.8E1,6E2,2.339E3,3.061E3,2.612E3,1.391E3,7.5E2,2.16E2,5.94E2,8.55E2,4.93E2,2.8E1,6E1,2E2,3.08E2,2.34E3,7.94E2,4.53E2,9.32E2,9.13E2,5.94E2,5.8E1,1.1E1,1.56E2,1.72E2],"tree_param":{"num_deleted":"0","num_feature":"6","num_nodes":"125","size_leaf_vector":"1"}},{"base_weights":[-1.1984133E-2,-1.7911743E2,1.3265804E2,-2.866022E2,-1.3230626E2,3.775143E1,2.1212115E2,-4.2090674E2,-2.6254294E2,-8.993532E1,-1.802481E2,7.461113E1,-5.237597E1,1.6525528E2,2.9024792E2,-4.616734E2,-2.9296957E2,-4.0234015E2,-2.45175E2,-1.6975514E2,1.8632166E1,-2.091956E2,-1.02488174E2,1.1470944E2,2.3792805E1,-1.4212352E2,-2.3933784E1,1.3521205E2,2.2662836E2,3.242944E2,2.2974268E2,-3.8679767E2,-5.261708E2,-2.3270802E2,-6.296616E2,-4.6291623E2,-2.9862912E2,-1.2716228E2,-2.7163654E2,-2.301008E2,-1.0409651E2,2.6292212E2,-5.84388E1,-2.842781E2,-1.7974422E2,-1.5147028E2,2.6273407E1,8.0091606E1,3.052232E2,1.33768425E1,4.042326E2,-1.7086806E2,-1.9478361E1,-3.3798122E1,7.5400696E1,2.278381E2,1.02777626E2,2.80621E2,1.4922144E2,5.0087918E2,2.958674E2,1.7036148E2,2.7817722E2,-1.4389485E2,-7.7683586E1,-2.0427821E2,-1.3985678E2,-9.958321E1,-5.7186146E1,-2.0089113E2,1.1542222E2,-1.4832646E2,-1.2789802E2,-8.373865E1,-1.25213066E2,-2.3711695E1,-1.3101761E2,-7.698007E1,-1.1160925E2,-6.5406685E1,-1.2323542E2,-4.1930977E1,2.4394896E1,9.769755E1,-1.1733557E2,-4.591366E1,1.6367781E0,-6.0438625E1,-1.1081586E2,-2.1916391E1,-7.5053246E1,-8.834795E1,-3.1953653E1,-2.729489E1,5.107449E1,1.4322014E1,7.222161E1,7.480883E1,1.5907755E2,2.1033443E1,-7.283893E0,-1.2681606E1,1.530188E2,-5.686292E1,-2.1851936E1,2.0981417E0,-3.0456009E1,-1.8626007E1,4.5216817E-1,1.4314895E1,4.4878036E1,5.569898E1,1.829379E2,4.7887478E1,2.120495E1,6.605135E1,1.6682005E2,7.51851E1,3.3238434E1,2.2663423E2,1.1526751E2,1.3040611E2,8.082785E1,5.7704716E1,2.428311E1,8.813719E1,4.943488E1],"categories":[],"categories_nodes":[],"categories_segments":[],"categories_sizes":[],"default_left":[0,0,0,0,0,0,0,0,0,0,0,0,0,0,0,0,0,0,0,0,0,0,0,0,0,0,0,0,0,0,0,0,0,0,0,0,0,0,0,0,0,0,0,0,0,0,0,0,0,0,0,0,0,0,0,0,0,0,0,0,0,0,0,0,0,0,0,0,0,0,0,0,0,0,0,0,0,0,0,0,0,0,0,0,0,0,0,0,0,0,0,0,0,0,0,0,0,0,0,0,0,0,0,0,0,0,0,0,0,0,0,0,0,0,0,0,0,0,0,0,0,0,0,0,0,0,0],"id":8,"left_children":[1,3,5,7,9,11,13,15,17,19,21,23,25,27,29,31,33,35,37,39,41,43,45,47,49,51,53,55,57,59,61,63,65,67,69,71,73,75,77,79,81,83,85,87,89,91,93,95,97,99,101,103,105,107,109,111,113,115,117,119,121,123,125,-1,-1,-1,-1,-1,-1,-1,-1,-1,-1,-1,-1,-1,-1,-1,-1,-1,-1,-1,-1,-1,-1,-1,-1,-1,-1,-1,-1,-1,-1,-1,-1,-1,-1,-1,-1,-1,-1,-1,-1,-1,-1,-1,-1,-1,-1,-1,-1,-1,-1,-1,-1,-1,-1,-1,-1,-1,-1,-1,-1,-1,-1,-1,-1],"loss_changes":[1.1967218E9,1.0779187E8,2.1818486E8,2.0895936E7,3.0313728E7,4.3808708E7,5.7609344E7,5.00728E6,1.3294144E7,6.870594E7,1.5744256E7,1.9068372E7,9.768011E6,1.8122016E7,1.20856E7,3.399136E6,4.743262E6,3.681472E6,1.5295264E7,1.80794E7,6.327631E7,1.1233072E7,1.1999918E7,3.447491E7,1.6356361E7,3.243546E6,2.8520068E6,1.9840824E7,1.3474304E7,1.8801472E7,6.075824E6,4.018892E6,3.377008E6,7.97104E5,1.717483E6,2.2956E5,4.09142E5,1.3387854E7,5.956352E6,5.104536E6,1.4496694E7,3.3199276E7,1.5445477E7,1.004696E7,2.7544888E7,8.829226E6,8.878526E6,2.3001638E7,9.974512E6,8.590139E6,5.219456E6,1.351882E6,3.8295044E5,2.6427532E6,5.3305875E5,2.7497424E7,8.92686E6,3.1580432E7,5.1582E6,1.5211296E7,1.1826912E7,1.869902E6,2.024808E6,0E0,0E0,0E0,0E0,0E0,0E0,0E0,0E0,0E0,0E0,0E0,0E0,0E0,0E0,0E0,0E0,0E0,0E0,0E0,0E0,0E0,0E0,0E0,0E0,0E0,0E0,0E0,0E0,0E0,0E0,0E0,0E0,0E0,0E0,0E0,0E0,0E0,0E0,0E0,0E0,0E0,0E0,0E0,0E0,0E0,0E0,0E0,0E0,0E0,0E0,0E0,0E0,0E0,0E0,0E0,0E0,0E0,0E0,0E0,0E0,0E0,0E0,0E0,0E0],"parents":[2147483647,0,0,1,1,2,2,3,3,4,4,5,5,6,6,7,7,8,8,9,9,10,10,11,11,12,12,13,13,14,14,15,15,16,16,17,17,18,18,19,19,20,20,21,21,22,22,23,23,24,24,25,25,26,26,27,27,28,28,29,29,30,30,31,31,32,32,33,33,34,34,35,35,36,36,37,37,38,38,39,39,40,40,41,41,42,42,43,43,44,44,45,45,46,46,47,47,48,48,49,49,50,50,51,51,52,52,53,53,54,54,55,55,56,56,57,57,58,58,59,59,60,60,61,61,62,62],"right_children":[2,4,6,8,10,12,14,16,18,20,22,24,26,28,30,32,34,36,38,40,42,44,46,48,50,52,54,56,58,60,62,64,66,68,70,72,74,76,78,80,82,84,86,88,90,92,94,96,98,100,102,104,106,108,110,112,114,116,118,120,122,124,126,-1,-1,-1,-1,-1,-1,-1,-1,-1,-1,-1,-1,-1,-1,-1,-1,-1,-1,-1,-1,-1,-1,-1,-1,-1,-1,-1,-1,-1,-1,-1,-1,-1,-1,-1,-1,-1,-1,-1,-1,-1,-1,-1,-1,-1,-1,-1,-1,-1,-1,-1,-1,-1,-1,-1,-1,-1,-1,-1,-1,-1,-1,-1,-1],"split_conditions":[1.814383E4,1.518193E4,2.092174E4,1.316356E4,9E0,1.9E1,2.278475E4,5E0,1E0,4E0,1.737476E4,4E0,1.881228E4,2.19926E4,1.7E1,6E0,1E1,1.470348E4,1E0,2E0,2E0,1.5E1,6E0,2.101633E4,2.401164E4,2.3E1,2.3E1,1E0,4E0,1E0,2.371159E4,3E0,1.391928E4,5E0,1.718879E4,5E0,6E0,6E0,1E0,6E0,1.714661E4,6E0,1E0,1.2E1,2.1E1,1.6E1,1.986181E4,1.7E1,1.7E1,1.1E1,1.947128E4,6E0,4E0,1.886233E4,1.964498E4,1.80449E4,1.2E1,1.6E1,1E1,1.6E1,9E0,4E0,2E1,-1.4389485E2,-7.7683586E1,-2.0427821E2,-1.3985678E2,-9.958321E1,-5.7186146E1,-2.0089113E2,1.1542222E2,-1.4832646E2,-1.2789802E2,-8.373865E1,-1.25213066E2,-2.3711695E1,-1.3101761E2,-7.698007E1,-1.1160925E2,-6.5406685E1,-1.2323542E2,-4.1930977E1,2.4394896E1,9.769755E1,-1.1733557E2,-4.591366E1,1.6367781E0,-6.0438625E1,-1.1081586E2,-2.1916391E1,-7.5053246E1,-8.834795E1,-3.1953653E1,-2.729489E1,5.107449E1,1.4322014E1,7.222161E1,7.480883E1,1.5907755E2,2.1033443E1,-7.283893E0,-1.2681606E1,1.530188E2,-5.686292E1,-2.1851936E1,2.0981417E0,-3.0456009E1,-1.8626007E1,4.5216817E-1,1.4314895E1,4.4878036E1,5.569898E1,1.829379E2,4.7887478E1,2.120495E1,6.605135E1,1.6682005E2,7.51851E1,3.3238434E1,2.2663423E2,1.1526751E2,1.3040611E2,8.082785E1,5.7704716E1,2.428311E1,8.813719E1,4.943488E1],"split_indices":[0,0,0,0,1,1,0,1,1,1,0,3,0,5,1,3,1,0,3,1,3,1,3,5,5,1,1,3,3,2,0,1,5,3,5,3,3,1,4,3,0,1,2,1,1,1,5,1,1,1,0,3,3,5,0,5,1,1,1,1,1,3,1,0,0,0,0,0,0,0,0,0,0,0,0,0,0,0,0,0,0,0,0,0,0,0,0,0,0,0,0,0,0,0,0,0,0,0,0,0,0,0,0,0,0,0,0,0,0,0,0,0,0,0,0,0,0,0,0,0,0,0,0,0,0,0,0],"split_type":[0,0,0,0,0,0,0,0,0,0,0,0,0,0,0,0,0,0,0,0,0,0,0,0,0,0,0,0,0,0,0,0,0,0,0,0,0,0,0,0,0,0,0,0,0,0,0,0,0,0,0,0,0,0,0,0,0,0,0,0,0,0,0,0,0,0,0,0,0,0,0,0,0,0,0,0,0,0,0,0,0,0,0,0,0,0,0,0,0,0,0,0,0,0,0,0,0,0,0,0,0,0,0,0,0,0,0,0,0,0,0,0,0,0,0,0,0,0,0,0,0,0,0,0,0,0,0],"sum_hessian":[5.0361E4,2.143E4,2.8931E4,6.5E3,1.493E4,1.3185E4,1.5746E4,9.85E2,5.515E3,7.927E3,7.003E3,9.358E3,3.827E3,9.844E3,5.902E3,7.45E2,2.4E2,6.07E2,4.908E3,4.568E3,3.359E3,5.102E3,1.901E3,5.23E3,4.128E3,9.2E2,2.907E3,6.611E3,3.233E3,3.774E3,2.128E3,3.48E2,3.97E2,2.05E2,3.5E1,3.81E2,2.26E2,9E2,4.008E3,2.379E3,2.189E3,8.05E2,2.554E3,1.435E3,3.667E3,1.377E3,5.24E2,4.427E3,8.03E2,4.019E3,1.09E2,7.45E2,1.75E2,2.645E3,2.62E2,1.713E3,4.898E3,1.903E3,1.33E3,5.21E2,3.253E3,9.58E2,1.17E3,2E2,1.48E2,1.08E2,2.89E2,5.9E1,1.46E2,3.4E1,1E0,1.98E2,1.83E2,1.97E2,2.9E1,7.8E2,1.2E2,3.489E3,5.19E2,2.232E3,1.47E2,1.836E3,3.53E2,7.35E2,7E1,1.029E3,1.525E3,7.29E2,7.06E2,1.459E3,2.208E3,3.28E2,1.049E3,2.89E2,2.35E2,3.686E3,7.41E2,6.45E2,1.58E2,1.603E3,2.416E3,2.1E1,8.8E1,6.25E2,1.2E2,1.33E2,4.2E1,1.468E3,1.177E3,1.92E2,7E1,1.544E3,1.69E2,1.766E3,3.132E3,1.562E3,3.41E2,3.64E2,9.66E2,1.62E2,3.59E2,5.18E2,2.735E3,7.68E2,1.9E2,1.027E3,1.43E2],"tree_param":{"num_deleted":"0","num_feature":"6","num_nodes":"127","size_leaf_vector":"1"}},{"base_weights":[-1.7126705E-2,-1.3625897E2,8.722966E1,-2.2034863E2,-1.1106197E2,2.1697859E1,1.478855E2,-2.9545422E2,-1.9940855E2,-1.0293311E2,-2.4801775E2,8.843785E1,-1.1633663E1,1.2494812E2,2.2807608E2,-3.239299E2,-2.060836E2,-2.7863763E2,-1.7371254E2,-5.7782093E1,-1.3505017E2,-4.269203E2,-1.9205573E2,-1.2846536E2,1.01516235E2,-8.068698E1,8.425818E0,2.3727502E2,1.1354371E2,2.0242105E2,2.9445416E2,-2.7139343E2,-3.6918442E2,-1.469367E2,-3.9016882E2,-3.247644E2,-2.4180826E2,-3.56805E1,-2.1030449E2,-9.309705E1,1.4082564E2,-1.6726071E2,-6.748458E1,-5.024955E2,-2.1716614E2,-4.0845987E2,-1.6801134E2,-1.2212504E2,-1.606251E2,2.0780583E2,6.953532E1,-1.4605652E2,-2.7004845E1,1.01578285E2,-3.7079876E1,4.6343573E2,1.9860568E2,1.2274271E2,3.304176E1,3.6204218E2,1.8837248E2,3.8483936E2,2.601811E2,-6.269603E1,-1.308148E2,-1.3556538E2,-9.332925E1,-3.7537292E1,-6.906453E1,-5.1023468E1,-1.281368E2,-1.0518012E2,-9.043981E1,-9.245608E1,-6.2113026E1,7.8659673E0,-1.0463771E2,-6.8128914E1,-2.9485992E1,-4.8246098E1,-1.8696726E1,5.0215267E1,-1.09721016E2,-3.4537533E1,-5.594038E1,-3.1804373E1,3.264782E1,-1.5470132E2,9.0546684E1,-7.510761E1,4.944938E1,-1.4103127E2,-8.583951E1,-3.778386E1,-7.426162E1,-4.717273E1,-7.0993776E0,9.277008E0,9.170618E1,4.7374878E1,1.4124505E1,-6.150699E1,2.7460938E0,1.5421823E1,-1.4070742E1,9.318879E0,9.671462E1,-2.643001E0,-3.628911E1,1.0869994E2,2.2326295E2,3.5492634E1,9.528788E1,2.94111E1,5.282635E1,5.869877E0,5.7730263E1,1.5431104E2,9.6322075E1,6.921029E1,4.8394817E1,1.3266753E2,9.486042E1,7.059318E1,1.04699715E2],"categories":[],"categories_nodes":[],"categories_segments":[],"categories_sizes":[],"default_left":[0,0,0,0,0,0,0,0,0,0,0,0,0,0,0,0,0,0,0,0,0,0,0,0,0,0,0,0,0,0,0,0,0,0,0,0,0,0,0,0,0,0,0,0,0,0,0,0,0,0,0,0,0,0,0,0,0,0,0,0,0,0,0,0,0,0,0,0,0,0,0,0,0,0,0,0,0,0,0,0,0,0,0,0,0,0,0,0,0,0,0,0,0,0,0,0,0,0,0,0,0,0,0,0,0,0,0,0,0,0,0,0,0,0,0,0,0,0,0,0,0,0,0,0,0],"id":9,"left_children":[1,3,5,7,9,11,13,15,17,19,21,23,25,27,29,31,33,35,37,39,41,43,45,47,49,51,53,55,57,59,61,63,65,67,69,71,73,75,77,79,81,83,85,87,89,91,93,95,-1,97,99,101,103,105,107,109,111,113,115,117,119,121,123,-1,-1,-1,-1,-1,-1,-1,-1,-1,-1,-1,-1,-1,-1,-1,-1,-1,-1,-1,-1,-1,-1,-1,-1,-1,-1,-1,-1,-1,-1,-1,-1,-1,-1,-1,-1,-1,-1,-1,-1,-1,-1,-1,-1,-1,-1,-1,-1,-1,-1,-1,-1,-1,-1,-1,-1,-1,-1,-1,-1,-1,-1],"loss_changes":[5.9864806E8,4.163341E7,1.2203371E8,7.068624E6,1.6818608E7,3.2833094E7,2.9298304E7,2.442496E6,7.172832E6,2.070568E7,8.39796E6,1.3958472E7,1.363633E7,1.5857728E7,5.977264E6,1.673432E6,2.566694E6,1.394344E6,1.3533856E7,4.166821E7,1.8152304E7,3.077172E6,3.297914E6,6.57071E5,1.5747824E7,7.77239E6,3.2342852E7,9.895308E6,8.33368E6,5.672472E6,2.954288E6,3.495066E6,1.771336E6,3.05431E5,3.99081E5,1.24244E5,1.057706E6,1.0921069E7,3.963504E6,1.0500392E7,1.2129084E7,5.637328E6,1.8326132E7,1.713456E6,7.3863775E5,3.48102E5,1.922497E6,9.540545E5,0E0,1.8550628E7,7.069198E6,9.144968E6,1.9027238E6,3.897741E7,1.2154654E7,4.442588E6,9.299592E6,1.3299088E7,2.4791995E6,1.120424E6,2.659864E6,9.19712E5,1.5039E6,0E0,0E0,0E0,0E0,0E0,0E0,0E0,0E0,0E0,0E0,0E0,0E0,0E0,0E0,0E0,0E0,0E0,0E0,0E0,0E0,0E0,0E0,0E0,0E0,0E0,0E0,0E0,0E0,0E0,0E0,0E0,0E0,0E0,0E0,0E0,0E0,0E0,0E0,0E0,0E0,0E0,0E0,0E0,0E0,0E0,0E0,0E0,0E0,0E0,0E0,0E0,0E0,0E0,0E0,0E0,0E0,0E0,0E0,0E0,0E0,0E0,0E0],"parents":[2147483647,0,0,1,1,2,2,3,3,4,4,5,5,6,6,7,7,8,8,9,9,10,10,11,11,12,12,13,13,14,14,15,15,16,16,17,17,18,18,19,19,20,20,21,21,22,22,23,23,24,24,25,25,26,26,27,27,28,28,29,29,30,30,31,31,32,32,33,33,34,34,35,35,36,36,37,37,38,38,39,39,40,40,41,41,42,42,43,43,44,44,45,45,46,46,47,47,49,49,50,50,51,51,52,52,53,53,54,54,55,55,56,56,57,57,58,58,59,59,60,60,61,61,62,62],"right_children":[2,4,6,8,10,12,14,16,18,20,22,24,26,28,30,32,34,36,38,40,42,44,46,48,50,52,54,56,58,60,62,64,66,68,70,72,74,76,78,80,82,84,86,88,90,92,94,96,-1,98,100,102,104,106,108,110,112,114,116,118,120,122,124,-1,-1,-1,-1,-1,-1,-1,-1,-1,-1,-1,-1,-1,-1,-1,-1,-1,-1,-1,-1,-1,-1,-1,-1,-1,-1,-1,-1,-1,-1,-1,-1,-1,-1,-1,-1,-1,-1,-1,-1,-1,-1,-1,-1,-1,-1,-1,-1,-1,-1,-1,-1,-1,-1,-1,-1,-1,-1,-1,-1,-1,-1],"split_conditions":[1.771561E4,1.470348E4,2.089078E4,1.316356E4,1E0,1.1E1,2.357483E4,5E0,2E0,4E0,1E1,1E0,1.5E1,8E0,2.465524E4,6E0,7E0,1E0,1E0,1.737476E4,1.864403E4,5E0,1.526203E4,1.977458E4,6E0,1.955596E4,1.8E1,1.853744E4,2E1,9E0,1.3E1,1E0,1.419391E4,1.302409E4,1E0,3E0,1E0,6E0,1.795754E4,2E0,6E0,5E0,1.6E1,2.322566E4,2.257889E4,3E0,1.624443E4,1.854278E4,-1.606251E2,5E0,1.853744E4,6E0,1.2E1,2.113201E4,5E0,1.679671E4,2.268203E4,1.5E1,2.2E1,8E0,2E0,2.491906E4,2.538595E4,-6.269603E1,-1.308148E2,-1.3556538E2,-9.332925E1,-3.7537292E1,-6.906453E1,-5.1023468E1,-1.281368E2,-1.0518012E2,-9.043981E1,-9.245608E1,-6.2113026E1,7.8659673E0,-1.0463771E2,-6.8128914E1,-2.9485992E1,-4.8246098E1,-1.8696726E1,5.0215267E1,-1.09721016E2,-3.4537533E1,-5.594038E1,-3.1804373E1,3.264782E1,-1.5470132E2,9.0546684E1,-7.510761E1,4.944938E1,-1.4103127E2,-8.583951E1,-3.778386E1,-7.426162E1,-4.717273E1,-7.0993776E0,9.277008E0,9.170618E1,4.7374878E1,1.4124505E1,-6.150699E1,2.7460938E0,1.5421823E1,-1.4070742E1,9.318879E0,9.671462E1,-2.643001E0,-3.628911E1,1.0869994E2,2.2326295E2,3.5492634E1,9.528788E1,2.94111E1,5.282635E1,5.869877E0,5.7730263E1,1.5431104E2,9.6322075E1,6.921029E1,4.8394817E1,1.3266753E2,9.486042E1,7.059318E1,1.04699715E2],"split_indices":[0,0,0,0,4,1,0,1,1,3,1,1,1,1,0,3,1,1,3,5,5,3,5,0,1,0,1,5,1,1,1,4,5,0,3,3,3,1,5,1,1,3,1,5,5,3,0,0,0,1,5,3,1,5,3,5,5,1,1,1,3,5,0,0,0,0,0,0,0,0,0,0,0,0,0,0,0,0,0,0,0,0,0,0,0,0,0,0,0,0,0,0,0,0,0,0,0,0,0,0,0,0,0,0,0,0,0,0,0,0,0,0,0,0,0,0,0,0,0,0,0,0,0,0,0],"split_type":[0,0,0,0,0,0,0,0,0,0,0,0,0,0,0,0,0,0,0,0,0,0,0,0,0,0,0,0,0,0,0,0,0,0,0,0,0,0,0,0,0,0,0,0,0,0,0,0,0,0,0,0,0,0,0,0,0,0,0,0,0,0,0,0,0,0,0,0,0,0,0,0,0,0,0,0,0,0,0,0,0,0,0,0,0,0,0,0,0,0,0,0,0,0,0,0,0,0,0,0,0,0,0,0,0,0,0,0,0,0,0,0,0,0,0,0,0,0,0,0,0,0,0,0,0],"sum_hessian":[5.0361E4,1.966E4,3.0701E4,4.531E3,1.5129E4,1.4758E4,1.5943E4,9.85E2,3.546E3,1.4283E4,8.46E2,4.915E3,9.843E3,1.2399E4,3.544E3,7.45E2,2.4E2,8.66E2,2.68E3,5.938E3,8.345E3,2E2,6.46E2,2.79E2,4.636E3,2.215E3,7.628E3,1.141E3,1.1258E4,2.559E3,9.85E2,3.48E2,3.97E2,1.83E2,5.7E1,3.81E2,4.85E2,5.62E2,2.118E3,5.042E3,8.96E2,5.65E3,2.695E3,1.46E2,5.4E1,6.3E1,5.83E2,2.76E2,3E0,1.071E3,3.565E3,9.98E2,1.217E3,2.503E3,5.125E3,1.65E2,9.76E2,1.0103E4,1.155E3,2.05E2,2.354E3,2.68E2,7.17E2,2.54E2,9.4E1,1.61E2,2.36E2,1.47E2,3.6E1,9E0,4.8E1,1.74E2,2.07E2,1.64E2,3.21E2,4.7E2,9.2E1,1.841E3,2.77E2,1.574E3,3.468E3,8.52E2,4.4E1,1.523E3,4.127E3,2.212E3,4.83E2,1.44E2,2E0,5E1,4E0,4E1,2.3E1,3.83E2,2E2,2.03E2,7.3E1,3.82E2,6.89E2,7.21E2,2.844E3,7.23E2,2.75E2,2.46E2,9.71E2,1.898E3,6.05E2,3.834E3,1.291E3,1.23E2,4.2E1,5.84E2,3.92E2,6.907E3,3.196E3,1.066E3,8.9E1,4.1E1,1.64E2,9.15E2,1.439E3,1.43E2,1.25E2,5.63E2,1.54E2],"tree_param":{"num_deleted":"0","num_feature":"6","num_nodes":"125","size_leaf_vector":"1"}},{"base_weights":[-2.3039464E-2,-9.547783E1,6.1104465E1,-1.7866325E2,-8.191137E1,1.8575774E0,9.6145164E1,-1.625428E2,-3.321422E2,-4.1539062E1,-1.0043049E2,-1.7105434E1,6.962965E1,7.4387505E1,1.4791138E2,-2.0881012E2,-8.22324E1,-5.6979694E2,-2.7171274E2,-1.1129051E2,1.0231097E-1,-1.2877348E2,-7.024199E1,6.763044E1,-2.9961891E1,2.3360172E2,3.055414E1,1.1477597E2,4.542275E1,1.9248811E2,1.20577225E2,-1.8182127E2,-4.27726E2,2.1173233E2,-1.388485E2,-8.6831805E2,-4.5853265E2,-3.086229E2,5.869057E2,-1.9438272E2,-8.657196E1,9.081717E1,-1.25238594E2,-1.5171536E2,-9.368056E1,-9.315735E1,1.3503767E1,2.5450873E2,-2.0099366E0,-5.492328E1,-1.0489598E1,2.5987204E2,-1.3011678E2,-4.4986587E0,1.9345915E2,1.8565715E2,9.774312E1,-6.241263E0,7.5917816E1,2.127294E2,9.290375E1,9.399528E1,1.7526811E2,-6.231448E1,-2.2663061E1,-8.687915E1,-1.9929196E2,1.0114438E2,-6.560845E1,-5.5306553E1,-1.2165606E1,-7.804004E1,-2.865746E2,-1.4771931E2,3.6980568E1,-3.2640938E1,-1.045245E2,2.4396802E2,-4.1043556E1,-6.9955086E1,-3.2428684E1,-3.1541283E1,-1.2139816E1,-9.879316E0,4.8282333E1,-7.1978546E1,-3.0634356E1,-4.0680122E1,-6.1925842E1,-3.1424786E1,-1.0945078E1,-1.8834036E1,-5.890591E1,-3.6611103E1,6.63573E1,2.9994568E1,1.0976876E2,-1.7381887E1,2.6245096E1,-2.0601927E1,3.8171175E0,-1.5125795E1,6.2061963E0,-2.2657545E2,8.0523834E1,2.3321508E1,-2.0791043E2,-1.0619638E1,4.6625298E1,8.8887634E1,2.8875216E1,1.5805934E2,5.056006E1,1.9427517E1,3.6696507E1,1.492992E-1,-2.7477863E1,4.660152E1,3.845338E0,6.108091E1,9.489966E1,4.1358658E1,9.481141E0,4.3404594E1,1.88045E1,5.9587013E1,3.75757E1],"categories":[],"categories_nodes":[],"categories_segments":[],"categories_sizes":[],"default_left":[0,0,0,0,0,0,0,0,0,0,0,0,0,0,0,0,0,0,0,0,0,0,0,0,0,0,0,0,0,0,0,0,0,0,0,0,0,0,0,0,0,0,0,0,0,0,0,0,0,0,0,0,0,0,0,0,0,0,0,0,0,0,0,0,0,0,0,0,0,0,0,0,0,0,0,0,0,0,0,0,0,0,0,0,0,0,0,0,0,0,0,0,0,0,0,0,0,0,0,0,0,0,0,0,0,0,0,0,0,0,0,0,0,0,0,0,0,0,0,0,0,0,0,0,0,0,0],"id":10,"left_children":[1,3,5,7,9,11,13,15,17,19,21,23,25,27,29,31,33,35,37,39,41,43,45,47,49,51,53,55,57,59,61,63,65,67,69,71,73,75,77,79,81,83,85,87,89,91,93,95,97,99,101,103,105,107,109,111,113,115,117,119,121,123,125,-1,-1,-1,-1,-1,-1,-1,-1,-1,-1,-1,-1,-1,-1,-1,-1,-1,-1,-1,-1,-1,-1,-1,-1,-1,-1,-1,-1,-1,-1,-1,-1,-1,-1,-1,-1,-1,-1,-1,-1,-1,-1,-1,-1,-1,-1,-1,-1,-1,-1,-1,-1,-1,-1,-1,-1,-1,-1,-1,-1,-1,-1,-1,-1],"loss_changes":[2.938637E8,2.217344E7,6.3738776E7,6.764768E6,1.2635752E7,1.466618E7,2.1717808E7,9.257336E6,3.593492E6,1.5446387E7,9.906888E6,9.716235E6,1.5979054E7,1.5887088E7,6.931808E6,9.275048E6,1.5241225E7,1.329014E6,6.8364E6,4.066362E6,3.788578E7,4.797048E6,1.0774884E7,1.5292285E7,3.7629515E6,4.620216E6,1.1512788E7,6.83092E6,1.2467385E7,4.350312E6,5.131392E6,3.867264E6,5.461016E6,8.0631075E6,3.423428E6,4.38815E5,8.48806E5,1.568244E6,1.585391E6,1.498142E6,1.308828E6,1.6779318E7,3.685782E6,3.156184E6,1.493456E6,1.3805868E7,3.4004148E7,5.45414E6,4.294652E6,3.156816E6,5.41754E6,4.08683E6,3.915053E6,8.208285E6,3.540135E6,6.326496E6,3.70192E6,1.6899191E6,2.4934938E7,1.638472E6,1.00983275E6,3.776364E6,1.326652E6,0E0,0E0,0E0,0E0,0E0,0E0,0E0,0E0,0E0,0E0,0E0,0E0,0E0,0E0,0E0,0E0,0E0,0E0,0E0,0E0,0E0,0E0,0E0,0E0,0E0,0E0,0E0,0E0,0E0,0E0,0E0,0E0,0E0,0E0,0E0,0E0,0E0,0E0,0E0,0E0,0E0,0E0,0E0,0E0,0E0,0E0,0E0,0E0,0E0,0E0,0E0,0E0,0E0,0E0,0E0,0E0,0E0,0E0,0E0,0E0,0E0,0E0,0E0,0E0],"parents":[2147483647,0,0,1,1,2,2,3,3,4,4,5,5,6,6,7,7,8,8,9,9,10,10,11,11,12,12,13,13,14,14,15,15,16,16,17,17,18,18,19,19,20,20,21,21,22,22,23,23,24,24,25,25,26,26,27,27,28,28,29,29,30,30,31,31,32,32,33,33,34,34,35,35,36,36,37,37,38,38,39,39,40,40,41,41,42,42,43,43,44,44,45,45,46,46,47,47,48,48,49,49,50,50,51,51,52,52,53,53,54,54,55,55,56,56,57,57,58,58,59,59,60,60,61,61,62,62],"right_children":[2,4,6,8,10,12,14,16,18,20,22,24,26,28,30,32,34,36,38,40,42,44,46,48,50,52,54,56,58,60,62,64,66,68,70,72,74,76,78,80,82,84,86,88,90,92,94,96,98,100,102,104,106,108,110,112,114,116,118,120,122,124,126,-1,-1,-1,-1,-1,-1,-1,-1,-1,-1,-1,-1,-1,-1,-1,-1,-1,-1,-1,-1,-1,-1,-1,-1,-1,-1,-1,-1,-1,-1,-1,-1,-1,-1,-1,-1,-1,-1,-1,-1,-1,-1,-1,-1,-1,-1,-1,-1,-1,-1,-1,-1,-1,-1,-1,-1,-1,-1,-1,-1,-1,-1,-1,-1],"split_conditions":[1.771561E4,1.411349E4,2.035239E4,1E1,3E0,2.110328E4,2.284525E4,4E0,1.5E1,3E0,1.725943E4,6E0,5E0,1.2E1,2E0,1E0,1.328491E4,1.328491E4,1.691355E4,1E0,6E0,1.596703E4,1.6E1,2E0,1.910809E4,2.278381E4,6E0,1.914665E4,1.5E1,1.9E1,2.425631E4,3E0,1.328938E4,1E0,6E0,1.340725E4,1.80449E4,1.8E1,1.402355E4,2E0,1.553758E4,4E0,1.5E1,2E1,2.3E1,1.2E1,6E0,5E0,5E0,6E0,1.7E1,1E0,1.6E1,2.302893E4,1.895916E4,7E0,2.173573E4,2.296365E4,1.8E1,2.510764E4,2E1,1.3E1,4E0,-6.231448E1,-2.2663061E1,-8.687915E1,-1.9929196E2,1.0114438E2,-6.560845E1,-5.5306553E1,-1.2165606E1,-7.804004E1,-2.865746E2,-1.4771931E2,3.6980568E1,-3.2640938E1,-1.045245E2,2.4396802E2,-4.1043556E1,-6.9955086E1,-3.2428684E1,-3.1541283E1,-1.2139816E1,-9.879316E0,4.8282333E1,-7.1978546E1,-3.0634356E1,-4.0680122E1,-6.1925842E1,-3.1424786E1,-1.0945078E1,-1.8834036E1,-5.890591E1,-3.6611103E1,6.63573E1,2.9994568E1,1.0976876E2,-1.7381887E1,2.6245096E1,-2.0601927E1,3.8171175E0,-1.5125795E1,6.2061963E0,-2.2657545E2,8.0523834E1,2.3321508E1,-2.0791043E2,-1.0619638E1,4.6625298E1,8.8887634E1,2.8875216E1,1.5805934E2,5.056006E1,1.9427517E1,3.6696507E1,1.492992E-1,-2.7477863E1,4.660152E1,3.845338E0,6.108091E1,9.489966E1,4.1358658E1,9.481141E0,4.3404594E1,1.88045E1,5.9587013E1,3.75757E1],"split_indices":[0,0,0,1,3,5,0,1,1,1,5,1,3,1,3,2,5,5,5,3,1,0,1,3,0,5,3,5,1,1,5,1,0,4,1,0,5,1,0,1,5,1,1,1,1,1,3,1,1,3,1,3,1,5,0,1,5,5,1,0,1,1,3,0,0,0,0,0,0,0,0,0,0,0,0,0,0,0,0,0,0,0,0,0,0,0,0,0,0,0,0,0,0,0,0,0,0,0,0,0,0,0,0,0,0,0,0,0,0,0,0,0,0,0,0,0,0,0,0,0,0,0,0,0,0,0,0],"split_type":[0,0,0,0,0,0,0,0,0,0,0,0,0,0,0,0,0,0,0,0,0,0,0,0,0,0,0,0,0,0,0,0,0,0,0,0,0,0,0,0,0,0,0,0,0,0,0,0,0,0,0,0,0,0,0,0,0,0,0,0,0,0,0,0,0,0,0,0,0,0,0,0,0,0,0,0,0,0,0,0,0,0,0,0,0,0,0,0,0,0,0,0,0,0,0,0,0,0,0,0,0,0,0,0,0,0,0,0,0,0,0,0,0,0,0,0,0,0,0,0,0,0,0,0,0,0,0],"sum_hessian":[5.0361E4,1.966E4,3.0701E4,2.755E3,1.6905E4,1.141E4,1.9291E4,2.495E3,2.6E2,5.317E3,1.1588E4,8.916E3,2.494E3,1.3584E4,5.707E3,1.582E3,9.13E2,5.1E1,2.09E2,1.987E3,3.33E3,5.975E3,5.613E3,1.174E3,7.742E3,4.79E2,2.015E3,5.672E3,7.912E3,2.167E3,3.54E3,1.41E3,1.72E2,1.47E2,7.66E2,1.2E1,3.9E1,2.01E2,8E0,4.54E2,1.533E3,1.932E3,1.398E3,3.611E3,2.364E3,4.407E3,1.206E3,3.18E2,8.56E2,3.392E3,4.35E3,4.47E2,3.2E1,1.659E3,3.56E2,1.097E3,4.575E3,2.937E3,4.975E3,1.8E3,3.67E2,2.384E3,1.156E3,1.133E3,2.77E2,1.1E2,6.2E1,1.14E2,3.3E1,5.23E2,2.43E2,2E0,1E1,3.7E1,2E0,3.4E1,1.67E2,6E0,2E0,3.12E2,1.42E2,1.092E3,4.41E2,6.99E2,1.233E3,2.33E2,1.165E3,2.792E3,8.19E2,1.98E3,3.84E2,3.406E3,1.001E3,7.3E2,4.76E2,1.34E2,1.84E2,5.27E2,3.29E2,2.819E3,5.73E2,1.907E3,2.443E3,3E0,4.44E2,2.4E1,8E0,1.391E3,2.68E2,1.72E2,1.84E2,5.1E1,1.046E3,1.955E3,2.62E3,2.723E3,2.14E2,2.202E3,2.773E3,1.657E3,1.43E2,2.11E2,1.56E2,9.09E2,1.475E3,7.86E2,3.7E2],"tree_param":{"num_deleted":"0","num_feature":"6","num_nodes":"127","size_leaf_vector":"1"}},{"base_weights":[-2.8502993E-2,-4.8810356E1,5.8901535E1,-7.760558E1,-1.1519027E1,3.9413082E1,9.7257E1,-6.90196E1,-1.5554742E2,3.5116346E0,-5.737793E1,7.9668304E1,2.4962938E1,1.589467E2,8.4012665E1,-8.1478386E1,-1.05926E1,-1.9056892E2,-8.5542336E1,3.368804E1,-2.6967316E1,-8.783403E1,3.4108913E1,7.102418E1,3.3210202E2,3.623697E1,-4.7960724E1,3.5351486E2,1.4013109E2,5.600269E1,1.1522431E2,-5.202686E1,-1.2207957E2,1.4739864E2,-3.3999226E1,-4.0691644E2,-1.8365082E2,1.0689101E2,-2.3236665E2,1.4179219E1,1.4378947E2,-6.0752533E1,3.997212E1,-1.0294036E2,4.4864086E1,5.6207176E1,-2.0216179E1,4.6115425E1,1.4299487E2,4.30196E2,1.328937E2,1.7869875E1,1.2518967E2,-8.074266E1,7.177637E1,4.7128644E2,2.9021014E2,8.645494E1,2.1517255E2,9.616602E1,2.3902441E1,1.1951667E2,-1.25053986E2,-1.7926441E1,4.522341E1,-1.0255993E2,-3.6082203E1,9.84165E1,-3.8064068E1,-1.5906981E1,5.1475372E1,-1.3408385E2,-4.969053E1,-4.965433E1,-8.388961E1,9.889498E1,4.0939227E-1,-7.307219E1,3.2747257E1,1.192342E1,-3.0712732E1,4.8977757E1,-1.7569798E2,-3.1482727E1,-7.920298E-1,-4.492743E0,6.725338E1,-4.1440987E1,-2.0928835E1,1.8198591E0,8.218216E1,2.9372242E1,1.1179416E1,1.02061E1,-2.0039255E1,5.159125E0,3.366128E1,4.720548E1,8.249889E0,1.3175723E2,3.9452785E1,-1.5293446E1,6.795867E1,2.3843136E1,2.4978814E0,7.144529E0,9.886897E1,-3.2811825E1,3.025418E1,4.35473E1,-2.2902851E1,1.6790628E2,8.599161E1,7.800919E1,1.2109579E2,4.5559364E1,9.838748E0,9.726026E1,3.8319836E1,3.5516468E1,1.0973138E1,-2.4681897E0,1.8027008E1,2.8056768E1,4.484471E1,-1.4994367E0,-6.962047E1],"categories":[],"categories_nodes":[],"categories_segments":[],"categories_sizes":[],"default_left":[0,0,0,0,0,0,0,0,0,0,0,0,0,0,0,0,0,0,0,0,0,0,0,0,0,0,0,0,0,0,0,0,0,0,0,0,0,0,0,0,0,0,0,0,0,0,0,0,0,0,0,0,0,0,0,0,0,0,0,0,0,0,0,0,0,0,0,0,0,0,0,0,0,0,0,0,0,0,0,0,0,0,0,0,0,0,0,0,0,0,0,0,0,0,0,0,0,0,0,0,0,0,0,0,0,0,0,0,0,0,0,0,0,0,0,0,0,0,0,0,0,0,0,0,0,0,0],"id":11,"left_children":[1,3,5,7,9,11,13,15,17,19,21,23,25,27,29,31,33,35,37,39,41,43,45,47,49,51,53,55,57,59,61,63,65,67,69,71,73,75,77,79,81,83,85,87,89,91,93,95,97,99,101,103,105,107,109,111,113,115,117,119,121,123,125,-1,-1,-1,-1,-1,-1,-1,-1,-1,-1,-1,-1,-1,-1,-1,-1,-1,-1,-1,-1,-1,-1,-1,-1,-1,-1,-1,-1,-1,-1,-1,-1,-1,-1,-1,-1,-1,-1,-1,-1,-1,-1,-1,-1,-1,-1,-1,-1,-1,-1,-1,-1,-1,-1,-1,-1,-1,-1,-1,-1,-1,-1,-1,-1],"loss_changes":[1.4477934E8,2.9586928E7,1.7045632E7,1.0394104E7,8.276502E6,8.796712E6,6.264776E6,1.0195244E7,3.764196E6,8.319084E6,8.261686E6,8.69378E6,9.153842E6,4.918332E6,5.52572E6,1.3798784E7,9.113288E6,1.462392E6,1.4603847E7,9.760391E6,1.0179462E7,4.462806E6,8.9069956E5,6.9204E6,2.52226E6,1.5750889E7,5.8582885E6,7.50433E5,4.97201E6,4.299939E6,3.100772E6,1.0496986E7,1.884736E6,1.5798593E7,8.402179E6,2.25381E5,1.689248E6,5.265105E6,1.148066E6,1.151201E7,9.809899E6,7.680556E6,1.5287167E7,2.322314E6,2.0247298E6,4.12632E5,5.4545044E5,5.486978E6,1.642198E6,1.78664E5,7.863076E5,4.698864E6,3.4177316E7,6.098983E6,3.5000878E6,4.92494E5,1.68929E5,2.5361305E6,4.877826E6,1.958129E6,2.1584615E6,2.27608E6,6.7976744E5,0E0,0E0,0E0,0E0,0E0,0E0,0E0,0E0,0E0,0E0,0E0,0E0,0E0,0E0,0E0,0E0,0E0,0E0,0E0,0E0,0E0,0E0,0E0,0E0,0E0,0E0,0E0,0E0,0E0,0E0,0E0,0E0,0E0,0E0,0E0,0E0,0E0,0E0,0E0,0E0,0E0,0E0,0E0,0E0,0E0,0E0,0E0,0E0,0E0,0E0,0E0,0E0,0E0,0E0,0E0,0E0,0E0,0E0,0E0,0E0,0E0,0E0,0E0,0E0],"parents":[2147483647,0,0,1,1,2,2,3,3,4,4,5,5,6,6,7,7,8,8,9,9,10,10,11,11,12,12,13,13,14,14,15,15,16,16,17,17,18,18,19,19,20,20,21,21,22,22,23,23,24,24,25,25,26,26,27,27,28,28,29,29,30,30,31,31,32,32,33,33,34,34,35,35,36,36,37,37,38,38,39,39,40,40,41,41,42,42,43,43,44,44,45,45,46,46,47,47,48,48,49,49,50,50,51,51,52,52,53,53,54,54,55,55,56,56,57,57,58,58,59,59,60,60,61,61,62,62],"right_children":[2,4,6,8,10,12,14,16,18,20,22,24,26,28,30,32,34,36,38,40,42,44,46,48,50,52,54,56,58,60,62,64,66,68,70,72,74,76,78,80,82,84,86,88,90,92,94,96,98,100,102,104,106,108,110,112,114,116,118,120,122,124,126,-1,-1,-1,-1,-1,-1,-1,-1,-1,-1,-1,-1,-1,-1,-1,-1,-1,-1,-1,-1,-1,-1,-1,-1,-1,-1,-1,-1,-1,-1,-1,-1,-1,-1,-1,-1,-1,-1,-1,-1,-1,-1,-1,-1,-1,-1,-1,-1,-1,-1,-1,-1,-1,-1,-1,-1,-1,-1,-1,-1,-1,-1,-1,-1],"split_conditions":[1.964498E4,1.687429E4,2.236181E4,1E0,2.1E1,1E1,1E0,1.790715E4,1.5E1,5E0,2.3E1,2.357483E4,5E0,9E0,2.34983E4,5E0,5E0,1.229948E4,1.9E1,1.7E1,2.119518E4,6E0,4E0,9E0,9E0,2.162684E4,2.393596E4,8E0,1.900846E4,1.3E1,5E0,1.725943E4,1.286055E4,1.858455E4,1.7E1,6E0,2.001873E4,1E0,1.929491E4,7E0,2.116501E4,6E0,1.5E1,2.2E1,1.881228E4,1.763376E4,1.745474E4,2.184426E4,2.244236E4,2.231955E4,2.104723E4,1.2E1,1.6E1,2E1,2.18452E4,2.290093E4,2.387485E4,1.3E1,1.7E1,2.302893E4,1.9E1,1.5E1,1.3E1,-1.7926441E1,4.522341E1,-1.0255993E2,-3.6082203E1,9.84165E1,-3.8064068E1,-1.5906981E1,5.1475372E1,-1.3408385E2,-4.969053E1,-4.965433E1,-8.388961E1,9.889498E1,4.0939227E-1,-7.307219E1,3.2747257E1,1.192342E1,-3.0712732E1,4.8977757E1,-1.7569798E2,-3.1482727E1,-7.920298E-1,-4.492743E0,6.725338E1,-4.1440987E1,-2.0928835E1,1.8198591E0,8.218216E1,2.9372242E1,1.1179416E1,1.02061E1,-2.0039255E1,5.159125E0,3.366128E1,4.720548E1,8.249889E0,1.3175723E2,3.9452785E1,-1.5293446E1,6.795867E1,2.3843136E1,2.4978814E0,7.144529E0,9.886897E1,-3.2811825E1,3.025418E1,4.35473E1,-2.2902851E1,1.6790628E2,8.599161E1,7.800919E1,1.2109579E2,4.5559364E1,9.838748E0,9.726026E1,3.8319836E1,3.5516468E1,1.0973138E1,-2.4681897E0,1.8027008E1,2.8056768E1,4.484471E1,-1.4994367E0,-6.962047E1],"split_indices":[0,0,0,4,1,1,3,5,1,3,1,5,3,1,5,3,3,5,1,1,5,3,3,1,1,5,5,1,5,1,3,5,5,5,1,3,5,2,5,1,5,3,1,1,0,0,5,5,5,0,0,1,1,1,0,0,0,1,1,5,1,1,1,0,0,0,0,0,0,0,0,0,0,0,0,0,0,0,0,0,0,0,0,0,0,0,0,0,0,0,0,0,0,0,0,0,0,0,0,0,0,0,0,0,0,0,0,0,0,0,0,0,0,0,0,0,0,0,0,0,0,0,0,0,0,0,0],"split_type":[0,0,0,0,0,0,0,0,0,0,0,0,0,0,0,0,0,0,0,0,0,0,0,0,0,0,0,0,0,0,0,0,0,0,0,0,0,0,0,0,0,0,0,0,0,0,0,0,0,0,0,0,0,0,0,0,0,0,0,0,0,0,0,0,0,0,0,0,0,0,0,0,0,0,0,0,0,0,0,0,0,0,0,0,0,0,0,0,0,0,0,0,0,0,0,0,0,0,0,0,0,0,0,0,0,0,0,0,0,0,0,0,0,0,0,0,0,0,0,0,0,0,0,0,0,0,0],"sum_hessian":[5.0361E4,2.7553E4,2.2808E4,1.5547E4,1.2006E4,1.5125E4,7.683E3,1.4006E4,1.541E3,9.043E3,2.963E3,3.994E3,1.1131E4,1.356E3,6.327E3,1.1544E4,2.462E3,1.026E3,5.15E2,4.544E3,4.499E3,2.223E3,7.4E2,3.863E3,1.31E2,9.641E3,1.49E3,1.18E2,1.238E3,3.336E3,2.991E3,6.692E3,4.852E3,3.17E2,2.145E3,3E1,9.96E2,2.23E2,2.92E2,3.861E3,6.83E2,2.99E3,1.509E3,1.996E3,2.27E2,5.26E2,2.14E2,2.871E3,9.92E2,8.7E1,4.4E1,7.992E3,1.649E3,1.17E3,3.2E2,3.9E1,7.9E1,7.23E2,5.15E2,1.481E3,1.855E3,2.939E3,5.2E1,6.447E3,2.45E2,3.8E1,4.814E3,1.91E2,1.26E2,1.964E3,1.81E2,2.5E1,5E0,8.4E2,1.56E2,7.1E1,1.52E2,2.83E2,9E0,3.167E3,6.94E2,6.66E2,1.7E1,1.698E3,1.292E3,1.163E3,3.46E2,9.67E2,1.029E3,1.95E2,3.2E1,1.63E2,3.63E2,9.9E1,1.15E2,1.998E3,8.73E2,8.82E2,1.1E2,8.4E1,3E0,1.5E1,2.9E1,1.071E3,6.921E3,1.103E3,5.46E2,1.011E3,1.59E2,2.14E2,1.06E2,2.5E1,1.4E1,6.5E1,1.4E1,3.25E2,3.98E2,2.28E2,2.87E2,1.078E3,4.03E2,9.83E2,8.72E2,1.576E3,1.363E3,2.5E1,2.7E1],"tree_param":{"num_deleted":"0","num_feature":"6","num_nodes":"127","size_leaf_vector":"1"}},{"base_weights":[-3.2261738E-3,-4.8023537E1,3.0304192E1,-1.1186362E2,-4.1440598E1,5.344216E1,7.3091846E0,-1.6843091E2,-1.0059563E2,-3.5049458E1,-1.0699159E2,6.925956E1,-2.5671846E1,-2.512639E1,2.5606277E1,-1.6187439E2,-3.2656863E2,-8.999747E1,-1.7711597E2,7.9937983E0,-4.6101547E1,-1.3341759E2,-6.1576824E1,1.3737737E2,4.8790955E1,-5.4696537E1,3.4103256E1,1.3112074E2,-3.0952707E1,4.0779064E1,-3.5387533E0,-1.6818176E2,8.2271484E1,-1.0197495E2,-2.8963478E1,-1.1130499E2,-4.4120075E1,-1.9313695E2,-5.0364437E1,-7.430359E1,5.0331802E1,-9.052221E1,-3.177745E1,-1.2029675E2,-2.1863606E2,5.7133396E1,-1.5132222E2,1.8533536E2,8.932669E1,4.1375874E1,1.4731937E2,-8.506876E1,7.5906844E0,1.3394735E1,1.1260076E2,-1.0645947E2,1.624174E2,-3.189036E1,2.5044781E2,1.6657906E2,3.444293E1,-2.2673622E1,1.0026012E2,-5.9304413E1,-4.332509E1,2.6129885E0,2.74608E1,-3.1213518E1,-5.4795242E1,-7.9739294E0,-3.0536333E1,-4.6043903E1,-7.162764E1,-2.3596123E1,-2.2884114E-1,-7.254786E1,-1.7119652E1,3.39463E1,-2.5629213E1,-9.671292E0,-3.1964941E1,-9.105642E-2,-1.39342375E1,-4.2292576E1,-2.3792408E1,-1.1815197E2,-2.8361427E1,3.4558876E1,-5.150529E1,-6.2975838E1,-2.7435822E1,3.21325E0,6.87279E1,5.902452E1,1.6856339E1,2.0901358E1,1.1888669E0,3.8047516E1,1.15904465E2,-5.8245728E1,-2.1657185E1,6.843989E1,4.784397E-1,-1.8525904E0,1.1081432E1,4.1225357E1,1.8443615E1,-1.465558E1,-5.9113216E1,6.9759514E1,3.0441334E1,-1.1306657E1,6.5106726E-1,9.087955E1,4.4092896E1,4.1315765E1,1.1131488E2,7.215913E-1,1.42760315E1,1.8595036E1,-1.623309E1,5.7781456E1,9.790649E0],"categories":[],"categories_nodes":[],"categories_segments":[],"categories_sizes":[],"default_left":[0,0,0,0,0,0,0,0,0,0,0,0,0,0,0,0,0,0,0,0,0,0,0,0,0,0,0,0,0,0,0,0,0,0,0,0,0,0,0,0,0,0,0,0,0,0,0,0,0,0,0,0,0,0,0,0,0,0,0,0,0,0,0,0,0,0,0,0,0,0,0,0,0,0,0,0,0,0,0,0,0,0,0,0,0,0,0,0,0,0,0,0,0,0,0,0,0,0,0,0,0,0,0,0,0,0,0,0,0,0,0,0,0,0,0,0,0,0,0,0,0,0,0],"id":12,"left_children":[1,3,5,7,9,11,13,15,17,19,21,23,25,27,29,31,33,35,37,39,41,43,45,47,49,51,53,55,57,59,61,63,65,-1,-1,67,69,71,73,75,77,79,81,83,85,87,89,91,93,95,97,99,101,103,105,107,109,111,113,115,117,119,121,-1,-1,-1,-1,-1,-1,-1,-1,-1,-1,-1,-1,-1,-1,-1,-1,-1,-1,-1,-1,-1,-1,-1,-1,-1,-1,-1,-1,-1,-1,-1,-1,-1,-1,-1,-1,-1,-1,-1,-1,-1,-1,-1,-1,-1,-1,-1,-1,-1,-1,-1,-1,-1,-1,-1,-1,-1,-1,-1,-1],"loss_changes":[7.329688E7,8.184884E6,1.6427424E7,1.143762E6,7.397758E6,1.9260488E7,9.191817E6,2.59224E5,1.217552E6,7.65895E6,1.87479E6,1.7876288E7,4.452022E6,5.089248E6,4.378922E6,4.61953E5,9.56375E2,1.30303E6,3.63918E5,1.146711E7,8.147948E6,1.081774E6,6.1771345E6,6.811424E6,7.20051E6,3.267788E6,1.3623426E6,1.5118192E6,1.429115E6,5.184884E6,6.7374025E6,1.705505E5,4.6548164E3,0E0,0E0,4.53899E5,4.281975E5,2.582615E5,3.08103E4,3.214725E6,1.8543064E7,2.91395E6,4.473156E6,7.18591E5,2.8110265E6,3.341229E6,1.138504E6,1.1321736E7,5.264624E6,9.71249E6,3.331125E6,1.616951E6,7.4940644E5,3.066233E5,2.1357425E5,1.1561456E5,7.37036E5,1.0604595E6,5.3227E4,1.790009E6,2.6111105E6,7.625423E6,3.290956E6,0E0,0E0,0E0,0E0,0E0,0E0,0E0,0E0,0E0,0E0,0E0,0E0,0E0,0E0,0E0,0E0,0E0,0E0,0E0,0E0,0E0,0E0,0E0,0E0,0E0,0E0,0E0,0E0,0E0,0E0,0E0,0E0,0E0,0E0,0E0,0E0,0E0,0E0,0E0,0E0,0E0,0E0,0E0,0E0,0E0,0E0,0E0,0E0,0E0,0E0,0E0,0E0,0E0,0E0,0E0,0E0,0E0,0E0,0E0,0E0],"parents":[2147483647,0,0,1,1,2,2,3,3,4,4,5,5,6,6,7,7,8,8,9,9,10,10,11,11,12,12,13,13,14,14,15,15,16,16,17,17,18,18,19,19,20,20,21,21,22,22,23,23,24,24,25,25,26,26,27,27,28,28,29,29,30,30,31,31,32,32,35,35,36,36,37,37,38,38,39,39,40,40,41,41,42,42,43,43,44,44,45,45,46,46,47,47,48,48,49,49,50,50,51,51,52,52,53,53,54,54,55,55,56,56,57,57,58,58,59,59,60,60,61,61,62,62],"right_children":[2,4,6,8,10,12,14,16,18,20,22,24,26,28,30,32,34,36,38,40,42,44,46,48,50,52,54,56,58,60,62,64,66,-1,-1,68,70,72,74,76,78,80,82,84,86,88,90,92,94,96,98,100,102,104,106,108,110,112,114,116,118,120,122,-1,-1,-1,-1,-1,-1,-1,-1,-1,-1,-1,-1,-1,-1,-1,-1,-1,-1,-1,-1,-1,-1,-1,-1,-1,-1,-1,-1,-1,-1,-1,-1,-1,-1,-1,-1,-1,-1,-1,-1,-1,-1,-1,-1,-1,-1,-1,-1,-1,-1,-1,-1,-1,-1,-1,-1,-1,-1,-1,-1],"split_conditions":[1.767764E4,1E0,3E0,1E0,1E0,2E1,2.079506E4,1.668163E4,1.702643E4,2E0,1.5E1,1E0,2.2E1,1.642446E4,5E0,1.649245E4,1.745585E4,1.600078E4,1.759008E4,3E0,1.56552E4,1.3E1,1.9E1,1.8E1,1.7E1,1.906011E4,2.009974E4,1.790333E4,2.309861E4,2.005305E4,6E0,1.402355E4,1.590168E4,-1.0197495E2,-2.8963478E1,1.593549E4,1.668163E4,1.729656E4,1.706465E4,1.264755E4,6E0,2E0,5E0,5E0,1.504594E4,1.624443E4,1.557611E4,5E0,2.107645E4,1.2E1,2.131838E4,1.843239E4,2.027589E4,2.3E1,1.934158E4,1.780403E4,1.3E1,6E0,1.7E1,1.7E1,2.173573E4,1E1,1.895916E4,-5.9304413E1,-4.332509E1,2.6129885E0,2.74608E1,-3.1213518E1,-5.4795242E1,-7.9739294E0,-3.0536333E1,-4.6043903E1,-7.162764E1,-2.3596123E1,-2.2884114E-1,-7.254786E1,-1.7119652E1,3.39463E1,-2.5629213E1,-9.671292E0,-3.1964941E1,-9.105642E-2,-1.39342375E1,-4.2292576E1,-2.3792408E1,-1.1815197E2,-2.8361427E1,3.4558876E1,-5.150529E1,-6.2975838E1,-2.7435822E1,3.21325E0,6.87279E1,5.902452E1,1.6856339E1,2.0901358E1,1.1888669E0,3.8047516E1,1.15904465E2,-5.8245728E1,-2.1657185E1,6.843989E1,4.784397E-1,-1.8525904E0,1.1081432E1,4.1225357E1,1.8443615E1,-1.465558E1,-5.9113216E1,6.9759514E1,3.0441334E1,-1.1306657E1,6.5106726E-1,9.087955E1,4.4092896E1,4.1315765E1,1.1131488E2,7.215913E-1,1.42760315E1,1.8595036E1,-1.623309E1,5.7781456E1,9.790649E0],"split_indices":[0,1,3,3,4,1,5,0,0,3,1,2,1,5,3,0,0,0,0,1,5,1,1,1,1,5,0,0,0,0,3,0,5,0,0,5,0,0,5,5,1,1,3,3,0,0,5,1,0,1,5,0,0,1,5,0,1,3,1,1,5,1,0,0,0,0,0,0,0,0,0,0,0,0,0,0,0,0,0,0,0,0,0,0,0,0,0,0,0,0,0,0,0,0,0,0,0,0,0,0,0,0,0,0,0,0,0,0,0,0,0,0,0,0,0,0,0,0,0,0,0,0,0],"split_type":[0,0,0,0,0,0,0,0,0,0,0,0,0,0,0,0,0,0,0,0,0,0,0,0,0,0,0,0,0,0,0,0,0,0,0,0,0,0,0,0,0,0,0,0,0,0,0,0,0,0,0,0,0,0,0,0,0,0,0,0,0,0,0,0,0,0,0,0,0,0,0,0,0,0,0,0,0,0,0,0,0,0,0,0,0,0,0,0,0,0,0,0,0,0,0,0,0,0,0,0,0,0,0,0,0,0,0,0,0,0,0,0,0,0,0,0,0,0,0,0,0,0,0],"sum_hessian":[5.0361E4,1.9486E4,3.0875E4,1.82E3,1.7666E4,1.5389E4,1.5486E4,3E2,1.52E3,1.6098E4,1.568E3,1.2825E4,2.564E3,5.585E3,9.901E3,2.9E2,1E1,1.337E3,1.83E2,3.289E3,1.2809E4,9.9E2,5.78E2,2.962E3,9.863E3,1.726E3,8.38E2,2E2,5.385E3,6.511E3,3.39E3,2.83E2,7E0,9E0,1E0,9.12E2,4.25E2,1.62E2,2.1E1,1.117E3,2.172E3,3.122E3,9.687E3,8.6E2,1.3E2,2.49E2,3.29E2,1.481E3,1.481E3,9.174E3,6.89E2,1.16E3,5.66E2,6.64E2,1.74E2,2.3E1,1.77E2,5.368E3,1.7E1,3.11E2,6.2E3,2.863E3,5.27E2,1.23E2,1.6E2,1E0,6E0,8.3E2,8.2E1,3.27E2,9.8E1,8.9E1,7.3E1,1.3E1,8E0,1.03E2,1.014E3,1.485E3,6.87E2,6.74E2,2.448E3,3.08E3,6.607E3,5.7E2,2.9E2,5.3E1,7.7E1,1.99E2,5E1,1.65E2,1.64E2,2.97E2,1.184E3,3.48E2,1.133E3,5.223E3,3.951E3,6.36E2,5.3E1,1.21E2,1.039E3,1.4E1,5.52E2,3.63E2,3.01E2,1.16E2,5.8E1,1.5E1,8E0,8.1E1,9.6E1,4.587E3,7.81E2,1E1,7E0,2.74E2,3.7E1,1.804E3,4.396E3,7.75E2,2.088E3,2.22E2,3.05E2],"tree_param":{"num_deleted":"0","num_feature":"6","num_nodes":"123","size_leaf_vector":"1"}},{"base_weights":[-5.269699E-3,-2.231814E1,3.4779728E1,-2.9950932E1,2.022457E1,4.5391342E1,1.3118739E0,-4.927987E0,-3.90386E1,1.0200092E-1,7.760369E1,5.0999146E1,-5.5405836E0,1.9510849E1,-4.1453426E1,-6.2923782E1,1.5425746E1,-6.2228325E1,-3.2406544E1,2.9748672E1,-1.0712488E2,1.46454E2,-4.3962902E1,9.035772E1,3.975649E1,-1.846044E1,7.9389595E1,2.905699E0,9.5383446E1,-9.838906E1,1.0028021E1,-1.013111E2,-2.4466637E1,8.682469E1,-2.16091E1,-6.696964E1,7.824175E1,-4.3583893E1,-1.1306548E1,9.989487E1,1.5130739E1,-1.5152196E2,-1.0572863E1,1.0388379E2,2.1122186E2,-3.531869E2,-2.2037214E1,2.5060692E2,7.172792E1,3.2402573E1,1.2057876E2,-6.445513E1,6.4846015E0,6.1419773E1,1.2797104E2,1.9994122E1,-1.7599995E1,2.624119E2,5.9203777E1,-2.5778812E1,-2.1263055E2,1.7047428E0,1.3628766E2,-5.7938152E1,-2.6959541E1,-2.076516E1,-6.0402554E-1,7.603351E0,6.605693E1,-2.4382423E1,-6.3768244E-1,-2.3738922E1,-1.1652785E1,1.4497342E2,9.786138E0,-9.397379E0,-2.6952751E1,-1.177202E1,2.0825287E1,4.8386845E1,6.410287E-2,-5.1982555E1,7.5342584E0,-5.7629795E1,-4.218919E0,-1.7004253E1,3.2924255E1,1.6046911E1,6.026192E1,-1.6185854E1,7.207221E1,-4.9058193E1,-2.0915622E2,5.016565E1,-2.0914703E1,1.5429391E2,4.8490177E1,6.474834E1,1.4717677E1,1.5705834E1,1.3628585E0,2.5733501E1,6.313473E1,-5.2056343E1,-1.5147839E1,3.6756687E0,-3.775852E1,3.3088184E1,-5.467435E0,1.1595748E1,4.614009E1,2.1571698E0,1.902204E1,2.736821E1,-7.463229E0,4.5321804E1,1.1522711E2,1.8092148E2,1.6725945E1,2.8800993E1,-2.1637373E1,-7.672233E1,-1.1585046E1,-2.0159903E0,4.333472E1,3.0155714E1,9.636304E1],"categories":[],"categories_nodes":[],"categories_segments":[],"categories_sizes":[],"default_left":[0,0,0,0,0,0,0,0,0,0,0,0,0,0,0,0,0,0,0,0,0,0,0,0,0,0,0,0,0,0,0,0,0,0,0,0,0,0,0,0,0,0,0,0,0,0,0,0,0,0,0,0,0,0,0,0,0,0,0,0,0,0,0,0,0,0,0,0,0,0,0,0,0,0,0,0,0,0,0,0,0,0,0,0,0,0,0,0,0,0,0,0,0,0,0,0,0,0,0,0,0,0,0,0,0,0,0,0,0,0,0,0,0,0,0,0,0,0,0,0,0,0,0,0,0,0,0],"id":13,"left_children":[1,3,5,7,9,11,13,15,17,19,21,23,25,27,29,31,33,35,37,39,41,43,45,47,49,51,53,55,57,59,61,63,65,67,69,71,73,75,77,79,81,83,85,87,89,91,93,95,97,99,101,103,105,107,109,111,113,115,117,119,121,123,125,-1,-1,-1,-1,-1,-1,-1,-1,-1,-1,-1,-1,-1,-1,-1,-1,-1,-1,-1,-1,-1,-1,-1,-1,-1,-1,-1,-1,-1,-1,-1,-1,-1,-1,-1,-1,-1,-1,-1,-1,-1,-1,-1,-1,-1,-1,-1,-1,-1,-1,-1,-1,-1,-1,-1,-1,-1,-1,-1,-1,-1,-1,-1,-1],"loss_changes":[3.9089404E7,9.963654E6,6.989606E6,5.915626E6,5.389737E6,4.268248E6,3.6890995E6,8.183718E6,2.933018E6,1.0992714E7,1.0150754E7,5.952832E6,1.6287404E6,4.18881E6,4.1485338E6,2.656277E6,1.3572162E7,2.831135E6,3.499876E6,2.7762768E6,3.209081E6,2.112114E6,2.9686145E6,8.9084E6,6.220233E6,1.4781912E6,1.6324812E5,9.566206E5,3.5921555E6,5.5688275E6,7.816329E5,9.29526E5,9.0517994E5,1.436781E7,3.9290608E6,1.40095E6,2.552506E6,5.49917E6,1.1595217E7,2.857953E6,4.2233035E6,2.858668E6,1.3210324E6,2.2815795E6,2.367649E6,1.778038E6,3.72029E6,7.213778E6,8.743899E6,5.335509E6,2.712278E6,6.810741E5,6.3968106E5,5.664315E5,1.1402081E5,8.2718475E5,9.8512156E5,1.378018E6,8.897059E5,2.3322872E6,1.9481E6,8.415739E5,2.7197556E5,0E0,0E0,0E0,0E0,0E0,0E0,0E0,0E0,0E0,0E0,0E0,0E0,0E0,0E0,0E0,0E0,0E0,0E0,0E0,0E0,0E0,0E0,0E0,0E0,0E0,0E0,0E0,0E0,0E0,0E0,0E0,0E0,0E0,0E0,0E0,0E0,0E0,0E0,0E0,0E0,0E0,0E0,0E0,0E0,0E0,0E0,0E0,0E0,0E0,0E0,0E0,0E0,0E0,0E0,0E0,0E0,0E0,0E0,0E0,0E0,0E0,0E0,0E0,0E0],"parents":[2147483647,0,0,1,1,2,2,3,3,4,4,5,5,6,6,7,7,8,8,9,9,10,10,11,11,12,12,13,13,14,14,15,15,16,16,17,17,18,18,19,19,20,20,21,21,22,22,23,23,24,24,25,25,26,26,27,27,28,28,29,29,30,30,31,31,32,32,33,33,34,34,35,35,36,36,37,37,38,38,39,39,40,40,41,41,42,42,43,43,44,44,45,45,46,46,47,47,48,48,49,49,50,50,51,51,52,52,53,53,54,54,55,55,56,56,57,57,58,58,59,59,60,60,61,61,62,62],"right_children":[2,4,6,8,10,12,14,16,18,20,22,24,26,28,30,32,34,36,38,40,42,44,46,48,50,52,54,56,58,60,62,64,66,68,70,72,74,76,78,80,82,84,86,88,90,92,94,96,98,100,102,104,106,108,110,112,114,116,118,120,122,124,126,-1,-1,-1,-1,-1,-1,-1,-1,-1,-1,-1,-1,-1,-1,-1,-1,-1,-1,-1,-1,-1,-1,-1,-1,-1,-1,-1,-1,-1,-1,-1,-1,-1,-1,-1,-1,-1,-1,-1,-1,-1,-1,-1,-1,-1,-1,-1,-1,-1,-1,-1,-1,-1,-1,-1,-1,-1,-1,-1,-1,-1,-1,-1,-1],"split_conditions":[2.027589E4,2.04209E4,4E0,2E0,1.5E1,2E1,1.7E1,3E0,1.56552E4,1.2E1,1.8E1,1E0,2.2E1,2.408584E4,1.9E1,1E0,6E0,1.759008E4,1.7E1,6E0,1.4E1,2.162684E4,1.726078E4,1.6E1,1.6E1,2.119681E4,2.107645E4,1.2E1,2.149211E4,5E0,6E0,1.264755E4,1E0,5E0,1.495485E4,5E0,7E0,1.2E1,6E0,1E0,1E0,6E0,1.915496E4,6E0,4E0,2.149048E4,1.869841E4,2.149048E4,2.139183E4,1.2E1,2.126243E4,2.039179E4,2.435613E4,1.934158E4,1E0,2.244268E4,1E0,2.454054E4,7E0,2.149211E4,6E0,2.2E1,2.107645E4,-5.7938152E1,-2.6959541E1,-2.076516E1,-6.0402554E-1,7.603351E0,6.605693E1,-2.4382423E1,-6.3768244E-1,-2.3738922E1,-1.1652785E1,1.4497342E2,9.786138E0,-9.397379E0,-2.6952751E1,-1.177202E1,2.0825287E1,4.8386845E1,6.410287E-2,-5.1982555E1,7.5342584E0,-5.7629795E1,-4.218919E0,-1.7004253E1,3.2924255E1,1.6046911E1,6.026192E1,-1.6185854E1,7.207221E1,-4.9058193E1,-2.0915622E2,5.016565E1,-2.0914703E1,1.5429391E2,4.8490177E1,6.474834E1,1.4717677E1,1.5705834E1,1.3628585E0,2.5733501E1,6.313473E1,-5.2056343E1,-1.5147839E1,3.6756687E0,-3.775852E1,3.3088184E1,-5.467435E0,1.1595748E1,4.614009E1,2.1571698E0,1.902204E1,2.736821E1,-7.463229E0,4.5321804E1,1.1522711E2,1.8092148E2,1.6725945E1,2.8800993E1,-2.1637373E1,-7.672233E1,-1.1585046E1,-2.0159903E0,4.333472E1,3.0155714E1,9.636304E1],"split_indices":[0,5,3,3,1,1,1,1,5,1,1,2,1,5,1,3,1,0,1,1,1,5,0,1,1,0,0,1,0,3,3,5,1,1,5,1,1,1,3,2,2,3,0,3,3,5,0,5,0,1,5,0,0,5,3,0,2,5,1,0,3,1,0,0,0,0,0,0,0,0,0,0,0,0,0,0,0,0,0,0,0,0,0,0,0,0,0,0,0,0,0,0,0,0,0,0,0,0,0,0,0,0,0,0,0,0,0,0,0,0,0,0,0,0,0,0,0,0,0,0,0,0,0,0,0,0,0],"split_type":[0,0,0,0,0,0,0,0,0,0,0,0,0,0,0,0,0,0,0,0,0,0,0,0,0,0,0,0,0,0,0,0,0,0,0,0,0,0,0,0,0,0,0,0,0,0,0,0,0,0,0,0,0,0,0,0,0,0,0,0,0,0,0,0,0,0,0,0,0,0,0,0,0,0,0,0,0,0,0,0,0,0,0,0,0,0,0,0,0,0,0,0,0,0,0,0,0,0,0,0,0,0,0,0,0,0,0,0,0,0,0,0,0,0,0,0,0,0,0,0,0,0,0,0,0,0,0],"sum_hessian":[5.0361E4,3.0681E4,1.968E4,2.6014E4,4.667E3,1.4942E4,4.738E3,6.931E3,1.9083E4,3.456E3,1.211E3,1.346E4,1.482E3,3.324E3,1.414E3,1.8E3,5.131E3,4.242E3,1.4841E4,2.708E3,7.48E2,7.73E2,4.38E2,2.989E3,1.0471E4,1.287E3,1.95E2,2.728E3,5.96E2,6.71E2,7.43E2,9E2,9E2,1.752E3,3.379E3,4.104E3,1.38E2,9.701E3,5.14E3,4.66E2,2.242E3,5.12E2,2.36E2,4.68E2,3.05E2,2.8E1,4.1E2,3.1E2,2.679E3,9.599E3,8.72E2,4.52E2,8.35E2,1.44E2,5.1E1,1.488E3,1.24E3,1.05E2,4.91E2,4.11E2,2.6E2,6.98E2,4.5E1,9.8E1,8.02E2,3E2,6E2,1.2E3,5.52E2,8.31E2,2.548E3,2.864E3,1.24E3,1.3E1,1.25E2,7.67E3,2.031E3,3.819E3,1.321E3,2.88E2,1.78E2,1.12E2,2.13E3,3.95E2,1.17E2,1.71E2,6.5E1,3.09E2,1.59E2,3E1,2.75E2,1.9E1,9E0,8.2E1,3.28E2,7.7E1,2.33E2,3.63E2,2.316E3,5.593E3,4.006E3,6.3E2,2.42E2,5E1,4.02E2,8.01E2,3.4E1,8.9E1,5.5E1,1.2E1,3.9E1,1.15E3,3.38E2,7.7E1,1.163E3,5.6E1,4.9E1,2E0,4.89E2,1.13E2,2.98E2,2.08E2,5.2E1,6.6E2,3.8E1,3.9E1,6E0],"tree_param":{"num_deleted":"0","num_feature":"6","num_nodes":"127","size_leaf_vector":"1"}},{"base_weights":[1.1218117E-2,-1.5529627E1,2.4630646E1,-2.0479128E1,2.028677E1,4.5404156E1,1.2485431E1,-6.082309E1,-1.708608E1,-7.483234E2,2.1307535E1,-8.850512E0,5.991379E1,5.509769E0,5.4760704E1,-9.798266E1,-5.420094E1,-6.593802E0,-3.3091755E1,4.8790726E1,-3.0501666E2,2.7990616E1,-8.287721E1,1.25702194E2,-3.1874296E1,1.0478721E2,3.5451057E1,9.7202015E0,-5.0697838E1,5.72366E1,-2.0134123E2,-2.662967E2,-9.16327E1,-3.926E1,-8.565155E1,-2.2297933E0,-7.1959305E1,-6.1316906E1,-1.632477E1,9.383499E1,1.0189235E1,-4.0807278E1,-2.835508E2,-1.02919E2,1.4637915E2,1.2904153E1,-5.890123E1,3.1031998E2,8.724063E1,-3.8261068E0,7.0692924E1,-7.5268083E0,2.3219364E1,1.9384146E2,-6.503033E1,1.798311E2,4.859558E1,-8.705958E1,-3.1747658E1,-3.2892254E1,-1.9881157E1,-1.370296E1,2.6137794E1,-2.9112724E1,-7.200238E0,2.5528102E0,-8.833212E0,-3.6640068E1,-1.3907439E1,-8.999697E0,-2.685692E1,-1.5379117E1,1.19271345E1,3.0939287E1,-1.6176451E2,1.677756E1,-7.138722E0,-9.51062E1,3.4695315E0,-1.2657953E1,-1.2979239E2,3.90627E1,-3.6931316E1,-1.9870485E1,4.9447887E1,-4.686291E0,1.5749426E1,-2.043924E1,2.56925E1,4.9990635E1,1.5661844E2,3.5134567E1,5.5439982E0,-1.5933421E1,1.5111427E0,4.75994E1,1.701233E1,3.5531475E1,-3.788397E0,9.032037E1,6.1089873E0,2.7877502E1,1.2899376E2,4.828733E0,-3.224777E1,3.2820118E1,9.703392E1,2.0469719E2,1.3865092E1],"categories":[],"categories_nodes":[],"categories_segments":[],"categories_sizes":[],"default_left":[0,0,0,0,0,0,0,0,0,0,0,0,0,0,0,0,0,0,0,0,0,0,0,0,0,0,0,0,0,0,0,0,0,0,0,0,0,0,0,0,0,0,0,0,0,0,0,0,0,0,0,0,0,0,0,0,0,0,0,0,0,0,0,0,0,0,0,0,0,0,0,0,0,0,0,0,0,0,0,0,0,0,0,0,0,0,0,0,0,0,0,0,0,0,0,0,0,0,0,0,0,0,0,0,0,0,0,0,0],"id":14,"left_children":[1,3,5,7,9,11,13,15,17,19,21,23,25,27,29,31,33,35,37,-1,-1,39,41,43,45,47,49,51,53,55,-1,57,59,61,63,65,67,69,71,73,75,77,79,81,83,85,87,89,91,93,95,97,99,101,103,105,107,-1,-1,-1,-1,-1,-1,-1,-1,-1,-1,-1,-1,-1,-1,-1,-1,-1,-1,-1,-1,-1,-1,-1,-1,-1,-1,-1,-1,-1,-1,-1,-1,-1,-1,-1,-1,-1,-1,-1,-1,-1,-1,-1,-1,-1,-1,-1,-1,-1,-1,-1,-1],"loss_changes":[1.9269222E7,5.4735495E6,4.916483E6,3.712209E6,2.9572988E6,5.660612E6,3.626944E6,5.12434E5,4.2020435E6,1.3878568E6,2.6098702E6,4.7066375E6,6.223688E6,2.499368E6,3.169217E6,3.14404E5,8.368215E5,4.3117635E6,4.687967E6,0E0,0E0,4.124909E6,1.8963942E6,1.064502E6,1.5704209E6,7.189328E6,5.084439E6,2.2874E6,2.5921808E6,1.831336E6,0E0,1.148075E4,1.32949E5,9.88485E5,4.014675E5,4.1418405E6,1.209494E6,3.258674E6,1.2183891E7,4.463331E6,4.309948E6,2.7232658E6,1.3851262E6,1.0543908E5,8.110295E5,5.531074E5,1.085096E6,4.68957E6,3.787827E6,7.594743E5,2.372864E6,2.7735455E6,4.367156E6,9.3708175E5,2.3993075E6,1.1177162E6,2.416468E6,0E0,0E0,0E0,0E0,0E0,0E0,0E0,0E0,0E0,0E0,0E0,0E0,0E0,0E0,0E0,0E0,0E0,0E0,0E0,0E0,0E0,0E0,0E0,0E0,0E0,0E0,0E0,0E0,0E0,0E0,0E0,0E0,0E0,0E0,0E0,0E0,0E0,0E0,0E0,0E0,0E0,0E0,0E0,0E0,0E0,0E0,0E0,0E0,0E0,0E0,0E0,0E0],"parents":[2147483647,0,0,1,1,2,2,3,3,4,4,5,5,6,6,7,7,8,8,9,9,10,10,11,11,12,12,13,13,14,14,15,15,16,16,17,17,18,18,21,21,22,22,23,23,24,24,25,25,26,26,27,27,28,28,29,29,31,31,32,32,33,33,34,34,35,35,36,36,37,37,38,38,39,39,40,40,41,41,42,42,43,43,44,44,45,45,46,46,47,47,48,48,49,49,50,50,51,51,52,52,53,53,54,54,55,55,56,56],"right_children":[2,4,